tree
version=v4
num_class=1
num_tree_per_iteration=1
label_index=0
max_feature_idx=10
objective=regression
feature_names=order_item_discount_rate order_item_product_price order_item_quantity Month_order_date_(dateorders) Year_order_date_(dateorders) DelayOrdered DiscountPerProduct DenefitPerProduct TotalDiscountPerProduct MaxDiscountPerOrder product_name_mean
feature_infos=[-1.4436161092888953:2.1066322522279268] [-1.0535673253222395:3.2622562892624209] [-0.77851557765718959:1.9742130156506583] [-1.5375680657245407:1.6989195448649046] [-1.1657345733896449:2.4515961828683044] [-2.2993491419334502:1.7165000851856305] [-2.353251485116191:2.5291183521626395] [-3.5280300713566932:4.0549154892115684] [-1.1971648060012035:4.2427707829300028] [-1.0155369848500095:5.6328567735189727] [-1.9737176800119896:3.4701740165508492]
tree_sizes=2294 2444 2427 2440 2435 2431 2435 2439 2444 2434 2437 2448 2431 2446 2429 2443 2430 2452 2448 2443 2446 2441 2435 2456 2434 2437 2440 2454 2442 2443 2441 2435 2455 2460 2455 2458 2454 2465 2470 2473 2466 2471 2477 2487 2474 2477 2476 2485 2480 2473 2489 2486 2482 2484 2484 2486 2483 2489 2497 2471 2501 2502 2483 2491 2498 2485 2488 2495 2498 2506 2506 2502 2507 2513 2503 2494 2504 2512 2504 2514 2534 2503 2510 2526 2510 2541 2508 2521 2538 2531 2531 2509 2482 2531 2535 2511 2550 2513 2542 2542 2526 2498 2520 2514 2521 2344 2408 2519 2564 2525 2538 2510 2516 2515 2538 2546 2553 2240 2138 2520 2525 2527 2536 2520 2531 2526 2423 2537 2545 2527 2546 2525 2538 2556 2532 2496 2565 2504 2562 2537 2529 2294 2522 2549 2548 2543 2495 2212 2560 2542 2561 2479 2531 2508 2484 2552 1828 2548 1827 2540 2480 2552 2472 2555 2391 2478 2554 2476 2547 2541 1749 2335 2487 2564 1843 2545 1842 1745 1737 1757 2485 2572 2500 2110 2226 2266 2335 2236 2336 2253 2318 2492 1829 1841 1857 2335 2515 2561 1643 2506 1738 2236 2236 2216 2517 2498 2316 1741 2509 2504 1853 2570 2016 2094 2323 2232 1744 1741 2026 1557 2496 2499 2121 1468 2239 2336 2506 1836 2479 2293 2323 2565 2521 2557 2540 2332 2497 2502 2504 2508 2140 1539 2303 2542 2495 1760 2548 2483 2550 2550 2233 2270 2496 2507 1347 2526 2517 2467 2300 2420 1758 2503 2426 2135 2502 2567 2142 1820 1822 1529 2533 1652 2415 1343 2561 2514 2502 2499 2497 2498 2404 2320 2501 2412 2567 1915 2019 2337 2328 1461 2026 2448 2568 2527 1660 1643 1583 1669 1661 1560 2415 2539 2414 2558 2265 2492 2523 2536 2524 2286 2284 2278 1921 2538 2223 2218 1954 2486 2423 2418 2309 2571 2564 2430 2513 2503 2510 1523 2502 1533 2517 2133 2519 2423 2536 2140 2253 1569 1578 2526 2380 2375 2548 2401 2402 2500 2502 1736 2575 2574

Tree=0
num_leaves=25
num_cat=0
split_feature=10 2 1 2 1 2 8 1 2 1 1 1 2 2 1 2 1 2 2 2 1 1 1 1
split_gain=15336.3 8729.25 3769.15 2589.91 1690.99 1552.32 1500.8 1119.44 816.818 493.22 362.773 300.508 316.505 196.131 151.298 140.803 88.5313 70.5818 35.1412 27.4961 26.6489 23.9572 20.0454 7.64966
threshold=-0.12617859211513052 1.0000000180025095e-35 -0.27718322776685655 -0.43442450349370854 1.15026183070284 1.0000000180025095e-35 -0.83843992586094507 -0.89665531790980413 0.94193979316021537 -0.85949193984432559 1.6717464087316627 0.38758690217192066 -0.43442450349370854 1.6301219414871775 -0.96272353156062251 0.94193979316021537 -0.69440398499691114 0.94193979316021537 1.6301219414871775 0.94193979316021537 0.78738221017005827 2.3821862442111392 1.0000000180025095e-35 -0.41596777158595771
decision_type=2 2 2 2 2 2 2 2 2 2 2 2 2 2 2 2 2 2 2 2 2 2 2 2
left_child=1 2 3 7 5 11 14 -1 16 -5 -6 12 -2 -10 19 23 -8 -16 -17 -3 -13 -12 -4 -7
right_child=4 6 22 9 10 15 8 -9 13 -11 21 20 -14 -15 17 18 -18 -19 -20 -21 -22 -23 -24 -25
leaf_value=4.9827729552741884 5.078705374469572 5.0409550723804424 5.0939458212829702 5.0388904491521584 5.1393302885911014 5.1216971056770406 5.0991147325051909 5.0423847944060753 5.1185430164608867 5.081047641292729 5.1545456051438432 5.1175273796283829 5.1160806566280437 5.1307567655316824 5.0693684903542282 5.1533852514774336 5.1115844376969735 5.0906227006408464 5.1656920940161779 5.0626034777832025 5.1306686463652982 5.1644255382664204 5.1067310485313895 5.1391256684033984
leaf_weight=1026 1320 253 11192 905 7234 78 5235 8910 7656 7766 8849 8173 1327 7704 685 1387 2437 1367 1325 531 477 780 370 1290
leaf_count=1026 1320 253 11192 905 7234 78 5235 8910 7656 7766 8849 8173 1327 7704 685 1387 2437 1367 1325 531 477 780 370 1290
internal_value=5.10699 5.08987 5.07012 5.05506 5.13666 5.1237 5.11291 5.03623 5.11748 5.07665 5.14848 5.11338 5.09744 5.12467 5.07581 5.15227 5.10308 5.08353 5.1594 5.05562 5.11825 5.15535 5.09435 5.13813
internal_weight=0 56037 30169 18607 32240 15377 25868 9936 23032 8671 16863 11297 2647 15360 2836 4080 7672 2052 2712 784 8650 9629 11562 1368
internal_count=88277 56037 30169 18607 32240 15377 25868 9936 23032 8671 16863 11297 2647 15360 2836 4080 7672 2052 2712 784 8650 9629 11562 1368
is_linear=0
shrinkage=1


Tree=1
num_leaves=25
num_cat=0
split_feature=10 2 1 2 1 2 1 1 2 1 2 1 1 1 2 1 1 2 1 2 2 1 1 1
split_gain=13723.5 7811.24 3379.83 1807.43 1513.16 1389.07 1344.21 800.945 729.428 570.231 497.778 342.508 324.653 268.905 283.22 179.891 141.783 125.995 78.0819 71.155 31.4456 23.8464 21.3653 17.9373
threshold=-0.12617859211513052 1.0000000180025095e-35 -0.64439860327109733 -0.43442450349370854 1.15026183070284 1.0000000180025095e-35 -0.80680253850806738 -0.9172603410924226 0.94193979316021537 -0.27718322776685655 -0.43442450349370854 -0.85949193984432559 1.7836908038915553 0.38758690217192066 -0.43442450349370854 -0.69440398499691114 -0.97924058497332711 0.94193979316021537 -0.69440398499691114 0.94193979316021537 1.6301219414871775 0.78738221017005827 2.3821862442111392 1.0000000180025095e-35
decision_type=2 2 2 2 2 2 2 2 2 2 2 2 2 2 2 2 2 2 2 2 2 2 2 2
left_child=1 2 3 7 5 13 16 -1 18 10 -4 -5 -6 14 -2 -10 -3 -7 -8 -18 -19 -15 -14 -11
right_child=4 6 9 11 12 17 8 -9 15 23 -12 -13 22 21 -16 -17 19 20 -20 -21 -22 -23 -24 -25
leaf_value=-0.11821449405189952 -0.026760069761518592 -0.054050612018459752 -0.049669725111505275 -0.064423277675903043 0.030607938209848237 0.029454901142916805 -0.0073771535005117744 -0.066145632959403858 0.012779546253366605 -0.012343263303449512 -0.015873609733004338 -0.028471786750957892 0.044996523851971768 0.0099638763940664097 0.0085953386536102173 0.025343104864153393 -0.036675809851222055 0.043883883252738919 0.0043421092050547954 -0.016772483326888396 0.055525625631322545 0.022394950667881372 0.054327518437111783 -0.00024898819927308963
leaf_weight=1001 1320 537 2684 905 7253 1368 5211 6251 10411 11192 2421 5345 8830 8173 1327 4893 781 1387 2437 1598 1325 477 780 370
leaf_count=1001 1320 537 2684 905 7253 1368 5211 6251 10411 11192 2421 5345 8830 8173 1327 4893 781 1387 2437 1598 1325 477 780 370
internal_value=0 -0.0161957 -0.0348794 -0.0549766 0.0280591 0.0157984 0.00559454 -0.0733327 0.00998567 -0.0185985 -0.0336422 -0.0336776 0.0392394 0.00603699 -0.00903562 0.0167964 -0.0289682 0.0428266 -0.00364286 -0.0233065 0.0495717 0.0106494 0.0457539 -0.0119562
internal_weight=0 56037 30169 13502 32240 15377 25868 7252 22952 16667 5105 6250 16863 11297 2647 15304 2916 4080 7648 2379 2712 8650 9610 11562
internal_count=88277 56037 30169 13502 32240 15377 25868 7252 22952 16667 5105 6250 16863 11297 2647 15304 2916 4080 7648 2379 2712 8650 9610 11562
is_linear=0
shrinkage=0.054043


Tree=2
num_leaves=25
num_cat=0
split_feature=10 2 1 2 1 2 8 1 2 1 2 1 1 1 2 2 1 2 1 2 2 2 1 1
split_gain=12280.2 6989.77 3024.39 1617.35 1354.02 1242.99 1203.24 724.062 653.59 510.291 438.149 309.165 290.557 240.625 253.435 175.116 118.698 112.745 79.1779 53.5805 28.1386 23.6604 21.3385 19.1795
threshold=-0.12617859211513052 1.0000000180025095e-35 -0.64439860327109733 -0.43442450349370854 1.15026183070284 1.0000000180025095e-35 -0.85421894440766832 -0.94203592121147939 0.94193979316021537 -0.23609707020347023 -0.43442450349370854 -0.87563736682274784 1.6717464087316627 0.38758690217192066 -0.43442450349370854 1.6301219414871775 -0.96272353156062251 0.94193979316021537 -0.75213108477485269 0.94193979316021537 1.6301219414871775 0.94193979316021537 0.78738221017005827 2.3821862442111392
decision_type=2 2 2 2 2 2 2 2 2 2 2 2 2 2 2 2 2 2 2 2 2 2 2 2
left_child=1 2 3 7 5 13 16 -1 18 10 -4 -5 -6 14 -2 -10 21 -7 -8 -18 -19 -3 -15 -14
right_child=4 6 9 11 12 17 8 -9 15 -11 -12 -13 23 22 -16 -17 19 20 -20 -21 -22 -23 -24 -25
leaf_value=-0.12124531102520351 -0.025313875073412394 -0.059816397072322502 -0.046612488155572035 -0.064235622172851309 0.028934347330257026 0.027863067391322369 -0.016346621572033263 -0.063748372310132057 0.0099590746762373613 -0.011274396362224957 -0.015015752025668598 -0.027395442201115346 0.042551449729340371 0.0094253988384028157 0.0081308210080346856 0.021478260992304911 -0.033808381038122323 0.041512264246215153 -0.0011992076504264279 -0.015007711517561303 0.052524855061454004 -0.03973466624429163 0.021184659901458663 0.051391495569327837
leaf_weight=709 1320 253 2724 757 7234 1368 1193 6543 7680 11522 2421 5493 8849 8173 1327 7738 669 1387 6495 1309 1325 531 477 780
leaf_count=709 1320 253 2724 757 7234 1368 1193 6543 7680 11522 2421 5493 8849 8173 1327 7738 669 1387 6495 1309 1325 531 477 780
internal_value=0 -0.0153204 -0.0329944 -0.0520055 0.0265427 0.0149446 0.0052922 -0.0693696 0.009322 -0.0175934 -0.0317445 -0.0318575 0.0371188 0.00571073 -0.0085473 0.0157403 -0.0284198 0.0405122 -0.00354974 -0.0213665 0.0468927 -0.0462151 0.0100739 0.0432675
internal_weight=0 56037 30169 13502 32240 15377 25868 7252 23106 16667 5145 6250 16863 11297 2647 15418 2762 4080 7688 1978 2712 784 8650 9629
internal_count=88277 56037 30169 13502 32240 15377 25868 7252 23106 16667 5145 6250 16863 11297 2647 15418 2762 4080 7688 1978 2712 784 8650 9629
is_linear=0
shrinkage=0.054043


Tree=3
num_leaves=25
num_cat=0
split_feature=10 2 1 2 1 2 1 1 2 1 2 1 1 1 2 1 1 2 1 2 2 1 1 1
split_gain=10895.1 6285.81 2694.17 1443.66 1205.45 1128.06 1040.21 661.531 590.249 461.533 403.888 273.552 257.412 219.848 229.919 167.362 103.507 102.396 70.9721 52.4136 25.713 18.7259 16.6515 15.8904
threshold=-0.12617859211513052 1.0000000180025095e-35 -0.64439860327109733 -0.43442450349370854 1.15026183070284 1.0000000180025095e-35 -0.85949193984432559 -0.9172603410924226 0.94193979316021537 -0.27718322776685655 -0.43442450349370854 -0.80680253850806738 1.7836908038915553 0.38758690217192066 -0.43442450349370854 -0.75213108477485269 -0.97924058497332711 0.94193979316021537 -0.75213108477485269 0.94193979316021537 1.6301219414871775 0.78738221017005827 2.3821862442111392 1.0000000180025095e-35
decision_type=2 2 2 2 2 2 2 2 2 2 2 2 2 2 2 2 2 2 2 2 2 2 2 2
left_child=1 2 3 7 5 13 16 -1 18 10 -4 -5 -6 14 -2 -10 -3 -7 -8 -18 -19 -15 -14 -11
right_child=4 6 9 11 12 17 8 -9 15 23 -12 -13 22 21 -16 -17 19 20 -20 -21 -22 -23 -24 -25
leaf_value=-0.1064444026557964 -0.024054315282150168 -0.048395266313279194 -0.044503004006901409 -0.056870876822601592 0.027396022544757342 0.026269394590456002 -0.015413248485703536 -0.059055038370024647 0.0018580046679705761 -0.011066251929759184 -0.014204255646476488 -0.025245753815770152 0.04026814751197598 0.0089221195547970721 0.0077292524219324194 0.017360356654762196 -0.033763556674302989 0.039194212912384466 -0.0011347331866534004 -0.015759029289021089 0.049627666717101428 0.020014268840381794 0.048587374578719804 0.00039201148625906719
leaf_weight=998 1336 516 2712 942 7204 1370 1205 6237 2410 11209 2442 5256 8757 8199 1323 13035 692 1398 6507 1487 1362 470 764 365
leaf_count=998 1336 516 2712 942 7204 1370 1205 6237 2410 11209 2442 5256 8757 8199 1323 13035 692 1398 6507 1487 1362 470 764 365
internal_value=0 -0.0144084 -0.0311694 -0.0491939 0.0250484 0.014169 0.00514635 -0.065592 0.00884456 -0.0166952 -0.0301473 -0.0300523 0.0351037 0.00535385 -0.00824023 0.0149414 -0.0266308 0.0383476 -0.00336575 -0.0214769 0.0443429 0.00952349 0.0409357 -0.0107049
internal_weight=0 56013 30161 13433 32183 15458 25852 7235 23157 16728 5154 6198 16725 11328 2659 15445 2695 4130 7712 2179 2760 8669 9521 11574
internal_count=88196 56013 30161 13433 32183 15458 25852 7235 23157 16728 5154 6198 16725 11328 2659 15445 2695 4130 7712 2179 2760 8669 9521 11574
is_linear=0
shrinkage=0.054043


Tree=4
num_leaves=25
num_cat=0
split_feature=10 2 1 1 1 2 2 1 1 2 2 1 1 2 2 1 2 1 2 2 2 2 1 1
split_gain=9749.31 5624.76 2449.07 1123.04 1078.68 1009.43 954.693 931.18 557.179 523.848 323.676 231.064 196.728 205.739 155.869 105.351 91.6279 65.2302 52.4661 44.0744 25.7044 23.0089 16.7566 14.2193
threshold=-0.12617859211513052 1.0000000180025095e-35 -0.75213108477485269 -0.27718322776685655 1.15026183070284 1.0000000180025095e-35 -0.43442450349370854 -0.80680253850806738 -0.97924058497332711 0.94193979316021537 -0.43442450349370854 1.9901127648055088 0.38758690217192066 -0.43442450349370854 1.6301219414871775 -0.94203592121147939 0.94193979316021537 -0.69440398499691114 -0.43442450349370854 1.6301219414871775 0.94193979316021537 1.6301219414871775 0.78738221017005827 1.0000000180025095e-35
decision_type=2 2 2 2 2 2 2 2 2 2 2 2 2 2 2 2 2 2 2 2 2 2 2 2
left_child=1 2 8 6 5 12 -4 15 18 17 -10 -6 13 -2 -11 20 -7 -9 -1 -17 -3 -18 -14 -5
right_child=4 7 3 23 11 16 -8 9 10 14 -12 -13 22 -15 -16 19 21 -19 -20 -21 -22 -23 -24 -25
leaf_value=-0.11435865151843655 -0.022754349123824107 -0.05195840109365011 -0.047247600217121113 -0.010468198046363585 0.026186349423700198 0.024849716908014088 -0.018374872401699962 -0.0064798853814496404 -0.068702675386212289 0.0087781576786717889 -0.039320561066966971 0.038954289334698002 0.0084399416096393766 0.0073115406144656208 0.019674571262028408 -0.022634051184855453 0.037076038975126298 0.0042221204033628824 -0.079545882532322157 -0.0051754049555634528 -0.03284874723183074 0.046945638491730939 0.018932636596920776 0.00037082601338508107
leaf_weight=576 1336 304 6833 11209 7529 1370 6552 5208 2538 7635 1926 9196 8199 1323 7702 1298 1398 2444 162 626 635 1362 470 365
leaf_count=576 1336 304 6833 11209 7529 1370 6552 5208 2538 7635 1926 9196 8199 1323 7702 1298 1398 2444 162 626 635 1362 470 365
internal_value=0 -0.0136297 -0.0294849 -0.0224543 0.0236947 0.0134032 -0.0331143 0.00486822 -0.0632172 0.00848782 -0.0560257 0.0332066 0.00506451 -0.0077949 0.0142502 -0.024196 0.0362752 -0.00306173 -0.106717 -0.0169536 -0.0390355 0.0419465 0.00900882 -0.0101264
internal_weight=0 56013 30161 24959 32183 15458 13385 25852 5202 22989 4464 16725 11328 2659 15337 2863 4130 7652 738 1924 939 2760 8669 11574
internal_count=88196 56013 30161 24959 32183 15458 13385 25852 5202 22989 4464 16725 11328 2659 15337 2863 4130 7652 738 1924 939 2760 8669 11574
is_linear=0
shrinkage=0.054043


Tree=5
num_leaves=25
num_cat=0
split_feature=10 2 1 1 1 2 2 1 1 2 2 1 1 1 2 2 2 2 1 2 1 1 1 1
split_gain=8724.05 5025.5 2195.52 1009.76 962.675 902.622 854.292 844.645 498.859 413.085 291.976 257.558 207.113 176.187 184.103 117.792 81.9918 78.0454 47.4495 37.4496 33.5135 22.3395 14.9553 14.8569
threshold=-0.061789876444154443 1.0000000180025095e-35 -0.75213108477485269 -0.27718322776685655 1.15026183070284 1.0000000180025095e-35 -0.43442450349370854 -0.78516519160026188 -0.99575763838603171 0.94193979316021537 -0.43442450349370854 -0.9172603410924226 1.6717464087316627 0.46608417580485095 -0.43442450349370854 1.6301219414871775 0.94193979316021537 1.6301219414871775 -0.99575763838603171 -0.43442450349370854 -0.64439860327109733 -0.41596777158595771 0.78738221017005827 2.3821862442111392
decision_type=2 2 2 2 2 2 2 2 2 2 2 2 2 2 2 2 2 2 2 2 2 2 2 2
left_child=1 2 8 6 5 13 -4 11 19 20 -10 18 -6 14 -2 -11 -7 -13 -3 -1 -9 -18 -15 -14
right_child=4 7 3 -5 12 16 -8 9 10 15 -12 17 23 22 -16 -17 21 -19 -20 -21 -22 -23 -24 -25
leaf_value=-0.10942939984081054 -0.021524634429818282 -0.045699484680808027 -0.044694198284240143 -0.0095421312060165464 0.024478001887666388 0.023506763625105995 -0.017381838342926722 -0.0039525000475100058 -0.065297065395758844 0.010421958455226766 -0.037584771697876274 -0.010861294398305426 0.035999080676699012 0.0079957818412187513 0.0069164030870825424 0.020650468028611205 0.021644370435940172 0.004592157891349956 -0.025161651302979846 -0.077522494393233443 0.0040519168414322095 0.040990314270044167 0.017909459730494067 0.043856360926976166
leaf_weight=542 1336 432 6833 11604 7180 1370 6552 4161 2572 6526 1954 2895 8781 8169 1323 6628 187 1424 1372 134 2414 2573 470 764
leaf_count=542 1336 432 6833 11604 7180 1370 6552 4161 2572 6526 1954 2895 8781 8169 1323 6628 187 1424 1372 134 2414 2573 470 764
internal_value=0 -0.0128837 -0.027859 -0.0212097 0.0224307 0.0126943 -0.0313247 0.00460513 -0.0598007 0.0100471 -0.0533329 -0.0129296 0.031412 0.00479098 -0.00737364 0.0155759 0.0343147 -0.0057662 -0.0300798 -0.103105 -0.00101369 0.0396796 0.00853513 0.036628
internal_weight=0 56043 30191 24989 32153 15428 13385 25852 5202 19729 4526 6123 16725 11298 2659 13154 4130 4319 1804 676 6575 2760 8639 9545
internal_count=88196 56043 30191 24989 32153 15428 13385 25852 5202 19729 4526 6123 16725 11298 2659 13154 4130 4319 1804 676 6575 2760 8639 9545
is_linear=0
shrinkage=0.054043


Tree=6
num_leaves=25
num_cat=0
split_feature=10 2 1 2 1 2 1 1 2 1 2 1 1 1 2 1 1 2 1 2 2 1 1 1
split_gain=7865.25 4514.06 1974.31 1042.71 870.744 807.017 757.348 506.352 424.713 311.887 278.65 213.106 187.717 158.203 163.769 152.056 76.8271 73.0563 56.0628 40.1861 20.5326 18.4304 13.4543 12.7461
threshold=-0.12617859211513052 1.0000000180025095e-35 -0.64439860327109733 -0.43442450349370854 1.15026183070284 1.0000000180025095e-35 -0.85949193984432559 -0.85949193984432559 0.94193979316021537 -0.18642203660695078 -0.43442450349370854 -0.89665531790980413 1.9901127648055088 0.38758690217192066 -0.43442450349370854 -0.69440398499691114 -0.96272353156062251 0.94193979316021537 -0.75213108477485269 0.94193979316021537 1.6301219414871775 -1.0265206495826338 0.78738221017005827 2.3821862442111392
decision_type=2 2 2 2 2 2 2 2 2 2 2 2 2 2 2 2 2 2 2 2 2 2 2 2
left_child=1 2 3 7 5 13 16 -1 18 10 -4 -5 -6 14 -2 -10 21 -7 -8 -18 -19 -3 -15 -14
right_child=4 6 9 11 12 17 8 -9 15 -11 -12 -13 23 22 -16 -17 19 20 -20 -21 -22 -23 -24 -25
leaf_value=-0.083939214189494141 -0.020303622259741291 -0.060757049035128317 -0.036491509454240276 -0.055599028101108693 0.023416045697845361 0.022251765377465049 -0.013625221135342511 -0.048539210220979283 0.0090132859721077149 -0.0089812397187720838 -0.011504213621301976 -0.022304727854089761 0.034268672594662722 0.0075550997471454818 0.0064857942228604901 0.02055571580538617 -0.028271730733072015 0.032909898805287732 -0.00087245164992383339 -0.011693734784538714 0.042234280169563147 -0.034317299633904202 0.016948020212693878 0.041469371707768488
leaf_weight=1485 1341 87 2813 624 7571 1380 1188 5748 10532 11379 2429 5604 8525 8191 1325 4877 632 1407 6601 1317 1353 670 471 784
leaf_count=1485 1341 87 2813 624 7571 1380 1188 5748 10532 11379 2429 5604 8525 8191 1325 4877 632 1407 6601 1317 1353 670 471 784
internal_value=0 -0.0122254 -0.0264655 -0.04185 0.0212478 0.0119852 0.00431152 -0.0558071 0.00746755 -0.0140059 -0.0249131 -0.0256406 0.0297355 0.00452267 -0.0069893 0.0126665 -0.0227446 0.0324045 -0.00281754 -0.0170695 0.0374809 -0.037356 0.00806584 0.0348751
internal_weight=0 55986 30082 13461 32348 15468 25904 7233 23198 16621 5242 6228 16880 11328 2666 15409 2706 4140 7789 1949 2760 757 8662 9309
internal_count=88334 55986 30082 13461 32348 15468 25904 7233 23198 16621 5242 6228 16880 11328 2666 15409 2706 4140 7789 1949 2760 757 8662 9309
is_linear=0
shrinkage=0.054043


Tree=7
num_leaves=25
num_cat=0
split_feature=10 2 1 1 1 2 2 1 1 2 2 1 1 1 2 2 2 2 1 1 1 1 1 1
split_gain=7038.1 4039.34 1790.68 805.252 779.172 722.147 721.838 689.576 417.818 334.897 222.919 208.64 168.31 141.566 146.546 106.049 65.3733 64.686 42.1489 37.2851 30.3847 20.1977 12.7644 12.2895
threshold=-0.12617859211513052 1.0000000180025095e-35 -0.78516519160026188 -0.45721910364756385 1.15026183070284 1.0000000180025095e-35 -0.43442450349370854 -0.78516519160026188 -0.97924058497332711 0.94193979316021537 -0.43442450349370854 -0.9172603410924226 1.6717464087316627 0.38758690217192066 -0.43442450349370854 1.6301219414871775 0.94193979316021537 1.6301219414871775 -1.0265206495826338 -0.99575763838603171 -0.64439860327109733 -0.41596777158595771 1.0000000180025095e-35 2.9686656396630906
decision_type=2 2 2 2 2 2 2 2 2 2 2 2 2 2 2 2 2 2 2 2 2 2 2 2
left_child=1 2 8 6 5 13 -4 11 18 20 -10 19 -6 14 -2 -11 -7 -13 -1 -3 -9 -18 -5 -14
right_child=4 7 3 22 12 16 -8 9 10 15 -12 17 23 -15 -16 -17 21 -19 -20 -21 -22 -23 -24 -25
leaf_value=-0.10167145160485996 -0.019206354040240965 -0.041048814326110482 -0.040713590897252315 -0.0090576701040116243 0.021888702088461109 0.02104921353636751 -0.015526170289514496 -0.0036793208812950532 -0.058538028379997581 0.0090926958623453336 -0.033824753658048691 -0.0099835196542531861 0.03249379741307952 0.007629941445355861 0.0061352826022135582 0.018808296266642117 0.018404047402607576 0.004086498094090809 -0.075363585309559764 -0.022832975353065391 0.0038800888109660971 0.036708769313530919 0.0014208726002237046 0.045110855166142723
leaf_weight=460 1341 430 6681 11349 7223 1380 6612 4203 2457 6512 1883 2865 9426 8662 1325 6614 189 1431 290 1386 2463 2571 350 231
leaf_count=460 1341 430 6681 11349 7223 1380 6612 4203 2457 6512 1883 2865 9426 8662 1325 6614 189 1431 290 1386 2463 2571 350 231
internal_value=0 -0.0115647 -0.0250352 -0.0190847 0.0200995 0.0113375 -0.0281853 0.00407851 -0.0542523 0.00897849 -0.0478157 -0.0117887 0.0281285 0.00427826 -0.00661158 0.0139882 0.0306533 -0.00529679 -0.0914991 -0.0271462 -0.000886218 0.0354553 -0.00874418 0.0327956
internal_weight=0 55986 30082 24992 32348 15468 13293 25904 5090 19792 4340 6112 16880 11328 2666 13126 4140 4296 750 1816 6666 2760 11699 9657
internal_count=88334 55986 30082 24992 32348 15468 13293 25904 5090 19792 4340 6112 16880 11328 2666 13126 4140 4296 750 1816 6666 2760 11699 9657
is_linear=0
shrinkage=0.054043


Tree=8
num_leaves=25
num_cat=0
split_feature=10 2 1 1 1 2 2 1 1 2 2 1 1 1 2 2 2 2 1 2 1 2 1 1
split_gain=6297.93 3614.54 1602.37 721.617 697.23 646.202 619.933 617.057 373.878 299.678 199.476 186.698 150.959 126.678 131.135 94.8963 59.7971 58.4983 37.7163 36.5444 27.1893 18.2978 12.1803 11.0613
threshold=-0.12617859211513052 1.0000000180025095e-35 -0.78516519160026188 -0.27718322776685655 1.15026183070284 1.0000000180025095e-35 -0.43442450349370854 -0.78516519160026188 -0.97924058497332711 0.94193979316021537 -0.43442450349370854 -0.9172603410924226 1.9901127648055088 0.38758690217192066 -0.43442450349370854 1.6301219414871775 0.94193979316021537 0.94193979316021537 -1.0265206495826338 0.94193979316021537 -0.64439860327109733 1.6301219414871775 0.62576284500430168 0.14391909441194431
decision_type=2 2 2 2 2 2 2 2 2 2 2 2 2 2 2 2 2 2 2 2 2 2 2 2
left_child=1 2 8 6 5 13 -4 11 18 20 -10 19 -6 14 -2 -11 -13 -7 -1 -3 -9 -19 -15 -5
right_child=4 7 3 23 12 17 -8 9 10 15 -12 16 -14 22 -16 -17 -18 21 -20 -21 -22 -23 -24 -25
leaf_value=-0.09617682037607414 -0.018168385353155993 -0.036688890519323426 -0.037839909204212645 -0.0083693083529887899 0.020941297005945613 0.019911651315887232 -0.014687089040134289 -0.0034804793419989434 -0.05537445537336623 0.0086012987659547565 -0.031996762722758275 -0.014146913955535892 0.031217374684104928 0.0065733704032485806 0.0058037133519996363 0.017791839828465619 -0.00056093747677408729 0.029224134170512759 -0.071290707655614821 -0.020340799500743755 0.0036703974185337686 0.038026453846419381 0.013592595906921152 0.0018682496276881747
leaf_weight=460 1341 593 6905 11158 7571 1380 6612 4203 2457 6512 1883 1407 9309 7867 1325 6614 2889 1407 290 1223 2463 1353 795 317
leaf_count=460 1341 593 6905 11158 7571 1380 6612 4203 2457 6512 1883 1407 9309 7867 1325 6614 2889 1407 290 1223 2463 1353 795 317
internal_value=0 -0.0109397 -0.0236822 -0.0180533 0.0190132 0.0107248 -0.0265144 0.00385809 -0.0513204 0.00849326 -0.0452316 -0.0111516 0.0266084 0.00404705 -0.00625427 0.0132323 -0.00501053 0.0289967 -0.0865542 -0.0256791 -0.000838324 0.0335392 0.0072176 -0.00808649
internal_weight=0 55986 30082 24992 32348 15468 13517 25904 5090 19792 4340 6112 16880 11328 2666 13126 4296 4140 750 1816 6666 2760 8662 11475
internal_count=88334 55986 30082 24992 32348 15468 13517 25904 5090 19792 4340 6112 16880 11328 2666 13126 4296 4140 750 1816 6666 2760 8662 11475
is_linear=0
shrinkage=0.054043


Tree=9
num_leaves=25
num_cat=0
split_feature=10 2 1 2 1 2 1 1 2 1 2 1 1 1 1 2 2 2 2 1 1 1 1 1
split_gain=5619.93 3226.93 1453.87 738.741 624.04 579.567 557.656 368.44 268.308 210.91 202.113 170.115 160.209 134.893 111.435 117.498 85.3819 55.8209 52.4281 35.0181 23.9285 17.2671 11.5599 10.8817
threshold=-0.12617859211513052 1.0000000180025095e-35 -0.64439860327109733 -0.43442450349370854 1.15026183070284 1.0000000180025095e-35 -0.78516519160026188 -0.85949193984432559 0.94193979316021537 -0.18642203660695078 -0.43442450349370854 -0.9172603410924226 -0.89665531790980413 1.5799116322238056 0.38758690217192066 -0.43442450349370854 1.6301219414871775 1.6301219414871775 0.94193979316021537 -0.99575763838603171 -0.64439860327109733 -0.41596777158595771 2.3821862442111392 0.78738221017005827
decision_type=2 2 2 2 2 2 2 2 2 2 2 2 2 2 2 2 2 2 2 2 2 2 2 2
left_child=1 2 3 7 5 14 11 -1 20 10 -4 19 -5 -6 15 -2 -10 -13 -7 -3 -8 -20 -15 -16
right_child=4 6 9 12 13 18 8 -9 16 -11 -12 17 -14 22 23 -17 -18 -19 21 -21 -22 -23 -24 -25
leaf_value=-0.071450208323412687 -0.017209126173514652 -0.038058249321123755 -0.030454623201577987 -0.047607220285916699 0.019574765381396891 0.018867173421171321 -0.00329692026971088 -0.041148014703445847 0.0081586905037668873 -0.0075765853826440573 -0.0092496760139149092 -0.0090715727608407844 -0.01895521630276983 0.028795974487499782 0.0063643717981376816 0.0054486036188846777 0.016853676257372607 0.0039301888336223893 0.015715469664246966 -0.020316754875721627 0.003472037855395539 0.032940709446944424 0.035646598211237425 0.01486173460478
leaf_weight=1471 1327 425 2835 635 7198 1371 4185 5764 6566 11436 2445 2908 5566 8857 8238 1347 6628 1443 182 1380 2400 2571 783 465
leaf_count=1471 1327 425 2835 635 7198 1371 4185 5764 6566 11436 2445 2908 5566 8857 8238 1347 6628 1443 182 1380 2400 2571 783 465
internal_value=0 -0.0103183 -0.0223407 -0.0355772 0.0179695 0.0101452 0.00365879 -0.047309 0.00807985 -0.0117014 -0.0206353 -0.0105459 -0.0218893 0.0251726 0.00385367 -0.00579553 0.0125266 -0.00475957 0.0275019 -0.0244941 -0.000829874 0.031802 0.0293524 0.00681838
internal_weight=0 56087 30152 13436 32339 15501 25935 7235 19779 16716 5280 6156 6201 16838 11377 2674 13194 4351 4124 1805 6585 2753 9640 8703
internal_count=88426 56087 30152 13436 32339 15501 25935 7235 19779 16716 5280 6156 6201 16838 11377 2674 13194 4351 4124 1805 6585 2753 9640 8703
is_linear=0
shrinkage=0.054043


Tree=10
num_leaves=25
num_cat=0
split_feature=10 2 1 2 1 2 1 1 2 1 2 1 1 1 1 2 1 2 1 2 2 2 1 1
split_gain=5028.91 2887.57 1300.97 661.051 558.413 518.617 499.928 335.115 276.932 188.729 180.857 144.096 121.813 120.94 99.7162 105.141 59.5784 47.3722 37.1199 30.7571 21.0084 15.696 10.323 10.2403
threshold=-0.12617859211513052 1.0000000180025095e-35 -0.64439860327109733 -0.43442450349370854 1.15026183070284 1.0000000180025095e-35 -0.80680253850806738 -0.94203592121147939 0.94193979316021537 -0.18642203660695078 -0.43442450349370854 -0.80680253850806738 -0.69440398499691114 1.9901127648055088 0.38758690217192066 -0.43442450349370854 -0.94203592121147939 1.6301219414871775 -0.69440398499691114 1.6301219414871775 1.6301219414871775 0.94193979316021537 2.9686656396630906 0.14391909441194431
decision_type=2 2 2 2 2 2 2 2 2 2 2 2 2 2 2 2 2 2 2 2 2 2 2 2
left_child=1 2 3 7 5 14 16 -1 18 10 -4 -5 -10 -6 15 -2 20 21 -8 -18 -3 -7 -15 -11
right_child=4 6 9 11 13 17 8 -9 12 23 -12 -13 -14 22 -16 -17 19 -19 -20 -21 -22 -23 -24 -25
leaf_value=-0.080234019705540865 -0.016279092427886045 -0.03476654877298082 -0.028808766053210644 -0.04008675407787405 0.018741919640854327 0.017847533530473601 -0.0048332715597886253 -0.040939579302966274 0.0069817356883010284 -0.0074471905836721308 -0.0087497958870261395 -0.017204388343571936 0.017278440680563122 0.027656899054763848 0.0064498984380379218 0.0051541447625593493 -0.017082183168522645 0.034272943270922902 0.0032470362136102016 -0.0024798580304458452 -0.017667910838059825 0.025992870108204492 0.039059398169837563 0.0021709540928538558
leaf_weight=702 1327 621 2835 949 7566 1371 5248 6533 10445 11103 2445 5252 4944 9034 8703 1347 1310 1360 2429 621 317 1393 238 333
leaf_count=702 1327 621 2835 949 7566 1371 5248 6533 10445 11103 2445 5252 4944 9034 8703 1347 1310 1360 2429 621 317 1393 238 333
internal_value=0 -0.00976071 -0.0211333 -0.0336545 0.0169984 0.00959693 0.00346106 -0.0447523 0.0061073 -0.011069 -0.0195201 -0.0207063 0.0102897 0.0238122 0.0036454 -0.00548232 -0.017814 0.0260156 -0.00227667 -0.0123861 -0.028988 0.0219526 0.0279496 -0.00716712
internal_weight=0 56087 30152 13436 32339 15501 25935 7235 23066 16716 5280 6201 15389 16838 11377 2674 2869 4124 7677 1931 938 2764 9272 11436
internal_count=88426 56087 30152 13436 32339 15501 25935 7235 23066 16716 5280 6201 15389 16838 11377 2674 2869 4124 7677 1931 938 2764 9272 11436
is_linear=0
shrinkage=0.054043


Tree=11
num_leaves=25
num_cat=0
split_feature=10 2 1 1 1 2 2 1 1 2 2 1 1 1 2 2 2 2 1 2 1 1 1 1
split_gain=4500.08 2579.27 1188.74 517.098 498.141 464.383 463.685 459.172 271.315 222.176 144.038 134.752 108.93 89.319 94.0841 68.8388 46.5603 42.3903 34.5984 31.6463 23.6377 14.1519 10.7754 9.93231
threshold=-0.061789876444154443 1.0000000180025095e-35 -0.78516519160026188 -0.45721910364756385 1.15026183070284 -0.43442450349370854 1.0000000180025095e-35 -0.78516519160026188 -0.99575763838603171 1.6301219414871775 -0.43442450349370854 -0.9172603410924226 1.4560337316285212 0.46608417580485095 -0.43442450349370854 0.94193979316021537 0.94193979316021537 1.6301219414871775 -0.64439860327109733 0.94193979316021537 -1.0265206495826338 -0.41596777158595771 1.0000000180025095e-35 2.3821862442111392
decision_type=2 2 2 2 2 2 2 2 2 2 2 2 2 2 2 2 2 2 2 2 2 2 2 2
left_child=1 2 8 5 6 -4 13 11 20 15 -10 19 -6 14 -2 -9 -13 21 -11 -3 -1 -8 -5 -14
right_child=4 7 3 22 12 -7 17 9 10 18 -12 16 23 -15 -16 -17 -18 -19 -20 -21 -22 -23 -24 -25
leaf_value=-0.083001420198974621 -0.015399322337813484 -0.032070132187564153 -0.032479487930442093 -0.0072128993401747547 0.017382237915090165 -0.012282306916915587 0.0063278937261161058 -0.00068489960498366385 -0.047418952297221283 0.012319162925723522 -0.027690357430035173 -0.012418356299201736 0.025693297068191959 0.0061123379304868089 0.0048755995086857207 0.007135107977998943 -0.00053563217151683727 0.032420732026391355 0.020377708172667999 -0.016929605808824136 -0.061685859723211181 0.021801940368220946 0.0017896710888880157 0.032038177800113685
leaf_weight=444 1327 608 6693 11403 7016 6607 185 6585 2507 4132 1900 1439 9039 8668 1347 6566 2912 1360 2496 1197 231 2579 402 783
leaf_count=444 1327 608 6693 11403 7016 6607 185 6585 2507 4132 1900 1439 9039 8668 1347 6566 2912 1360 2496 1197 231 2579 402 783
internal_value=0 -0.00922535 -0.0199641 -0.015139 0.0160935 -0.0224462 0.00909119 0.00327401 -0.0438003 0.00728574 -0.0389133 -0.00961552 0.0225253 0.00344862 -0.00518604 0.00321946 -0.00446559 0.0246096 0.0153539 -0.0220296 -0.0757068 0.0207662 -0.00690633 0.0261991
internal_weight=0 56122 30187 25105 32304 13300 15466 25935 5082 19779 4407 6156 16838 11342 2674 13151 4351 4124 6628 1805 675 2764 11805 9822
internal_count=88426 56122 30187 25105 32304 13300 15466 25935 5082 19779 4407 6156 16838 11342 2674 13151 4351 4124 6628 1805 675 2764 11805 9822
is_linear=0
shrinkage=0.054043


Tree=12
num_leaves=25
num_cat=0
split_feature=10 2 1 1 1 2 1 2 1 2 2 1 1 1 2 2 2 2 1 2 1 1 1 1
split_gain=4044.85 2320.69 1075.74 461.96 440.879 417.473 415.515 407.969 246.672 198.744 128.483 121.228 97.4626 77.315 82.6531 61.8183 43.315 38.5787 30.8313 28.6232 26.0095 14.9457 10.0975 8.77978
threshold=-0.12617859211513052 1.0000000180025095e-35 -0.78516519160026188 -0.45721910364756385 1.15026183070284 -0.43442450349370854 -0.78516519160026188 1.0000000180025095e-35 -0.97924058497332711 1.6301219414871775 -0.43442450349370854 -0.9172603410924226 1.4560337316285212 0.38758690217192066 -0.43442450349370854 0.94193979316021537 1.6301219414871775 0.94193979316021537 -0.64439860327109733 1.6301219414871775 -1.0265206495826338 -0.41596777158595771 0.62576284500430168 2.9686656396630906
decision_type=2 2 2 2 2 2 2 2 2 2 2 2 2 2 2 2 2 2 2 2 2 2 2 2
left_child=1 2 8 5 7 -4 11 13 20 15 -10 19 -6 14 -2 -8 -13 -9 -11 -3 -1 -19 -15 -14
right_child=4 6 3 -5 12 -7 9 17 10 18 -12 16 23 22 -16 -17 -18 21 -20 -21 -22 -23 -24 -25
leaf_value=-0.078422424185755901 -0.014449453500870405 -0.025640470852855323 -0.030747162899786629 -0.0065744333859498408 0.016442801952170551 -0.011584787379941815 -0.00064586766975214356 0.015782481433380433 -0.044660409307025931 0.011664727468466819 -0.02595098755203001 -0.0080753221983755688 0.02453157574080268 0.0051934105953747528 0.0046799773556797106 0.0067789003964123275 0.0034579550632709765 0.012248300836542199 0.019276436179529878 -0.011221095069528918 -0.057565402593898134 0.027998759597040172 0.011571427810121559 0.0352170724820157
leaf_weight=456 1306 1223 6720 11769 7045 6564 6588 1362 2514 4119 1869 2880 9532 7825 1333 6513 1420 189 2496 599 283 2550 799 230
leaf_count=456 1306 1223 6720 11769 7045 6564 6588 1362 2514 4119 1869 2880 9532 7825 1333 6513 1420 189 2496 599 283 2550 799 230
internal_value=0 -0.00880577 -0.0189849 -0.0143711 0.0152384 -0.0212785 0.00308192 0.00862138 -0.0415522 0.00690084 -0.0366823 -0.00921698 0.0212872 0.00330742 -0.00478688 0.00304526 -0.00426666 0.0232157 0.0145368 -0.0209 -0.0704352 0.0269119 0.00578432 0.0247833
internal_weight=0 56013 30175 25053 32171 13284 25838 15364 5122 19716 4383 6122 16807 11263 2639 13101 4300 4101 6615 1822 739 2739 8624 9762
internal_count=88184 56013 30175 25053 32171 13284 25838 15364 5122 19716 4383 6122 16807 11263 2639 13101 4300 4101 6615 1822 739 2739 8624 9762
is_linear=0
shrinkage=0.054043


Tree=13
num_leaves=25
num_cat=0
split_feature=10 2 1 2 1 1 2 1 2 1 2 1 1 1 1 2 2 2 2 1 1 1 1 1
split_gain=3619.5 2073.87 976.284 471.803 393.589 371.817 364.828 260.37 177.843 126.594 137.804 111.715 108.779 87.757 69.2387 73.9608 55.3171 38.6188 34.9848 29.9267 27.5889 11.8191 9.16281 8.59661
threshold=-0.061789876444154443 1.0000000180025095e-35 -0.64439860327109733 -0.43442450349370854 1.15026183070284 -0.78516519160026188 1.0000000180025095e-35 -0.85949193984432559 1.6301219414871775 -0.27718322776685655 -0.43442450349370854 -0.9172603410924226 -0.89665531790980413 1.9901127648055088 0.46608417580485095 -0.43442450349370854 0.94193979316021537 0.94193979316021537 1.6301219414871775 -0.99575763838603171 -0.64439860327109733 -0.41596777158595771 0.78738221017005827 0.14391909441194431
decision_type=2 2 2 2 2 2 2 2 2 2 2 2 2 2 2 2 2 2 2 2 2 2 2 2
left_child=1 2 3 7 6 12 14 -1 16 10 -4 -5 19 -6 15 -2 -7 -14 21 -3 -10 -8 -16 -11
right_child=4 5 9 11 13 8 18 -9 20 23 -12 -13 17 -15 22 -17 -18 -19 -20 -21 -22 -23 -24 -25
leaf_value=-0.058177701571850073 -0.01366856181353052 -0.031574609098671408 -0.024621522039961583 -0.039557027119740067 0.01582825492933141 -0.00061096299408608975 0.0055048094227978872 -0.032887455725349075 0.011034330188394283 -0.0063431190105414188 -0.006987081344046432 -0.015291488942674358 -0.011218514844792424 0.023676283249063377 0.00505210738604069 0.0044270572676322626 0.006412548212483435 -0.00021940503722296353 0.029190036713670372 -0.015650157457594249 0.018234679343259855 0.019469920902862418 0.012766783731605022 0.0023670622659708344
leaf_weight=1494 1306 451 2725 616 7580 6588 190 5823 4119 11220 2465 5517 1394 9227 8122 1333 6513 2815 1324 1462 2496 2587 476 341
leaf_count=1494 1306 451 2725 616 7580 6588 190 5823 4119 11220 2465 5517 1394 9227 8122 1333 6513 2815 1324 1462 2496 2587 476 341
internal_value=0 -0.00832463 -0.0179408 -0.0287845 0.0144241 0.00291536 0.0081642 -0.0380513 0.0065279 -0.00923404 -0.016246 -0.0177287 -0.00871887 0.0201368 0.00312898 -0.00452818 0.00288069 -0.00386226 0.021961 -0.0194044 0.0137512 0.0185144 0.00547921 -0.00608621
internal_weight=0 56039 30201 13450 32145 25838 15338 7317 19716 16751 5190 6133 6122 16807 11237 2639 13101 4209 4101 1913 6615 2777 8598 11561
internal_count=88184 56039 30201 13450 32145 25838 15338 7317 19716 16751 5190 6133 6122 16807 11237 2639 13101 4209 4101 1913 6615 2777 8598 11561
is_linear=0
shrinkage=0.054043


Tree=14
num_leaves=25
num_cat=0
split_feature=10 2 1 1 1 2 1 2 1 2 2 1 1 1 2 1 1 1 2 2 1 1 1 1
split_gain=3238.85 1855.77 877.098 369.235 352.197 335.287 333.794 326.461 207.468 186.48 102.591 78.5753 77.9913 61.9572 66.1827 44.7961 37.5956 33.3457 32.792 28.1104 12.5207 11.6311 8.29249 8.09138
threshold=-0.061789876444154443 1.0000000180025095e-35 -0.78516519160026188 -0.45721910364756385 1.15026183070284 -0.43442450349370854 -0.80680253850806738 1.0000000180025095e-35 -0.96272353156062251 1.6301219414871775 -0.43442450349370854 1.4560337316285212 -0.64439860327109733 0.46608417580485095 -0.43442450349370854 -0.97924058497332711 -0.69440398499691114 -1.0265206495826338 0.94193979316021537 1.6301219414871775 -0.41596777158595771 -1.0265206495826338 0.60168923222261073 2.3821862442111392
decision_type=2 2 2 2 2 2 2 2 2 2 2 2 2 2 2 2 2 2 2 2 2 2 2 2
left_child=1 2 8 5 7 -4 15 13 17 12 -10 -6 -8 14 -2 21 -11 -1 -9 -17 -20 -3 -15 -13
right_child=4 6 3 -5 11 -7 9 18 10 16 -12 23 -14 22 -16 19 -18 -19 20 -21 -22 -23 -24 -25
leaf_value=-0.071112967555579568 -0.012929871388914429 -0.046283536462610186 -0.027473747224469706 -0.0058500261814673467 0.014698776893510065 -0.010300850351149016 -0.001138503874741927 0.013921110339191347 -0.039511262283237911 0.0091636272068601858 -0.022441468597090963 0.021729490126279678 0.007178923435794779 0.004608507882670216 0.0041878056351765192 -0.015441511370892872 0.017214643298909552 -0.050376484528400295 0.010760606947725144 -0.002858457435822824 0.025176731314502595 -0.025066608556487187 0.010085534699987016 0.027471194539225433
leaf_weight=456 1306 91 6720 11795 7045 6564 10452 1362 2437 5164 1779 8983 4807 7696 1333 1592 2521 450 189 769 2550 442 902 779
leaf_count=456 1306 91 6720 11795 7045 6564 10452 1362 2437 5164 1779 8983 4807 7696 1333 1592 2521 450 189 769 2550 442 902 779
internal_value=0 -0.00787474 -0.0169712 -0.0128091 0.0136446 -0.0189881 0.00275781 0.00772298 -0.0373505 0.00493935 -0.0323084 0.0190485 0.00148171 0.00295988 -0.00428347 -0.0145378 0.0118047 -0.0608134 0.0207742 -0.0113431 0.024182 -0.028689 0.00518309 0.0221877
internal_weight=0 56039 30201 25079 32145 13284 25838 15338 5122 22944 4216 16807 15259 11237 2639 2894 7685 906 4101 2361 2739 533 8598 9762
internal_count=88184 56039 30201 25079 32145 13284 25838 15338 5122 22944 4216 16807 15259 11237 2639 2894 7685 906 4101 2361 2739 533 8598 9762
is_linear=0
shrinkage=0.054043


Tree=15
num_leaves=25
num_cat=0
split_feature=10 2 1 2 1 1 2 1 2 1 2 1 1 1 1 2 1 2 2 2 1 1 1 1
split_gain=2880.64 1665.9 782.778 386.534 322.895 302.657 296.059 213.381 143.55 100.951 107.118 89.3142 86.6168 70.6886 57.787 61.6272 50.8176 33.9642 29.5491 25.0238 15.5586 10.3468 7.51675 7.30654
threshold=-0.12617859211513052 1.0000000180025095e-35 -0.69440398499691114 -0.43442450349370854 1.15026183070284 -0.75213108477485269 1.0000000180025095e-35 -0.88385459994583793 0.94193979316021537 -0.1244830863093085 -0.43442450349370854 -0.87563736682274784 -0.9172603410924226 1.9901127648055088 0.38758690217192066 -0.43442450349370854 -0.64439860327109733 0.94193979316021537 0.94193979316021537 0.94193979316021537 -0.69440398499691114 -0.41596777158595771 0.78738221017005827 2.9686656396630906
decision_type=2 2 2 2 2 2 2 2 2 2 2 2 2 2 2 2 2 2 2 2 2 2 2 2
left_child=1 2 3 7 6 12 14 -1 20 10 -4 -5 19 -6 15 -2 -10 -14 -8 -3 -7 -20 -16 -15
right_child=4 5 9 11 13 8 18 -9 16 -11 -12 -13 17 23 22 -17 -18 -19 21 -21 -22 -23 -24 -25
leaf_value=-0.055766482879011918 -0.01239326197853122 -0.026817726729904661 -0.021272835891382735 -0.03330978363631628 0.014148544773226517 -0.00265567928930325 0.013172175894781157 -0.030326215219430311 0.0066041947129829165 -0.0054074373598565796 -0.0060632357975676527 -0.013514439425163251 -0.010295124358806718 0.020956577775797545 0.0045094646782699995 0.0039517466973470932 0.013572246687653661 -0.00032086319498408097 0.010529106687724828 -0.013257020657257673 0.0027951949857901535 0.023868599495985535 0.011543772357813436 0.030549671429402202
leaf_weight=1147 1339 589 2973 759 7513 4084 1340 6000 8216 11348 2481 5415 1499 9026 8217 1356 4868 2978 182 1222 2445 2539 469 238
leaf_count=1147 1339 589 2973 759 7513 4084 1340 6000 8216 11348 2481 5415 1499 9026 8217 1356 4868 2978 182 1222 2445 2539 469 238
internal_value=0 -0.00742718 -0.0160686 -0.0258527 0.0128534 0.00262286 0.0072142 -0.034409 0.00593067 -0.00831155 -0.0143541 -0.015948 -0.0076946 0.0180439 0.00274425 -0.00416921 0.00919671 -0.00366047 0.0197413 -0.0176674 -0.000614419 0.0229764 0.00488928 0.021203
internal_weight=0 56024 30123 13321 32219 25901 15442 7147 19613 16802 5454 6174 6288 16777 11381 2695 13084 4477 4061 1811 6529 2721 8686 9264
internal_count=88243 56024 30123 13321 32219 25901 15442 7147 19613 16802 5454 6174 6288 16777 11381 2695 13084 4477 4061 1811 6529 2721 8686 9264
is_linear=0
shrinkage=0.054043


Tree=16
num_leaves=25
num_cat=0
split_feature=10 2 1 1 1 1 2 2 1 2 2 1 1 1 2 2 2 1 2 1 1 1 1 1
split_gain=2577.7 1490.7 711.481 289.018 286.79 270.915 265.356 261.439 176.338 133.841 84.3595 77.581 61.8446 53.6544 55.1462 41.61 41.3575 29.1948 27.842 19.1151 14.8106 9.7114 8.62276 6.96763
threshold=-0.12617859211513052 1.0000000180025095e-35 -0.75213108477485269 1.3126658289936612 -0.45721910364756385 -0.78516519160026188 -0.43442450349370854 1.0000000180025095e-35 -0.96272353156062251 1.6301219414871775 -0.43442450349370854 -0.94203592121147939 1.4560337316285212 0.38758690217192066 -0.43442450349370854 0.94193979316021537 1.6301219414871775 -1.0265206495826338 1.6301219414871775 -0.64439860327109733 -1.0265206495826338 0.78738221017005827 -0.41596777158595771 2.3821862442111392
decision_type=2 2 2 2 2 2 2 2 2 2 2 2 2 2 2 2 2 2 2 2 2 2 2 2
left_child=1 2 8 7 6 11 -4 13 17 15 -10 20 -5 14 -2 -7 -13 -1 22 -11 -3 -15 -9 -14
right_child=3 5 4 12 -6 9 -8 18 10 19 -12 16 23 21 -16 -17 -18 -19 -20 -21 -22 -23 -24 -25
leaf_value=-0.064480032041350083 -0.011723492659826822 -0.043342268788575271 -0.024487522027450814 0.013171381817720236 -0.0052399342752753441 -0.00063215560019293476 -0.0091419935718491507 0.004142360358547652 -0.035293957694086643 0.0095806235459649711 -0.020043707209374421 -0.0082283992932368627 0.019449140091300485 0.0042657596808829447 0.0037381825593107007 0.0054432602802717434 0.0020872785274639737 -0.04519422063026475 0.025061625620540699 0.015585406072373445 -0.019572045883656998 0.011182351733444257 0.016350621938025788 0.024758040914183314
leaf_weight=458 1339 84 6624 6821 11719 6597 6541 181 2463 4155 1859 3474 9001 8217 1356 6573 1686 459 1337 2468 864 639 2543 785
leaf_count=458 1339 84 6624 6821 11719 6597 6541 181 2463 4155 1859 3474 9001 8217 1356 6573 1686 459 1337 2468 864 639 2543 785
internal_value=0 -0.00702579 -0.0152002 0.0121588 -0.0113892 0.00248111 -0.0168631 0.00687966 -0.0333014 0.00555148 -0.0287344 -0.00746845 0.0171216 0.00273297 -0.00394389 0.00240002 -0.00485781 -0.0548266 0.0186744 0.0118183 -0.0216783 0.00476482 0.0155394 0.019875
internal_weight=0 56024 30123 32219 24884 25901 13165 15612 5239 19793 4322 6108 16607 11551 2695 13170 5160 917 4061 6623 948 8856 2724 9786
internal_count=88243 56024 30123 32219 24884 25901 13165 15612 5239 19793 4322 6108 16607 11551 2695 13170 5160 917 4061 6623 948 8856 2724 9786
is_linear=0
shrinkage=0.054043


Tree=17
num_leaves=25
num_cat=0
split_feature=10 2 1 1 2 1 1 2 2 1 1 1 1 2 1 2 2 2 2 1 1 1 1 1
split_gain=2306.61 1333.93 638.856 330.138 277.523 258.656 242.783 241.108 118.749 94.9491 72.095 58.4634 44.0629 49.3467 39.2486 28.4858 25.0644 24.7635 23.1487 16.6284 8.92331 6.95356 6.15554 5.03568
threshold=-0.12617859211513052 1.0000000180025095e-35 -0.80680253850806738 -0.45721910364756385 -0.43442450349370854 0.98443059957393741 -0.75213108477485269 1.0000000180025095e-35 1.6301219414871775 -1.0265206495826338 -0.89665531790980413 1.9901127648055088 0.38758690217192066 -0.43442450349370854 -0.64439860327109733 0.94193979316021537 0.94193979316021537 -0.43442450349370854 1.6301219414871775 -0.69440398499691114 -0.51672180372122867 1.0000000180025095e-35 2.9686656396630906 -0.41596777158595771
decision_type=2 2 2 2 2 2 2 2 2 2 2 2 2 2 2 2 2 2 2 2 2 2 2 2
left_child=1 2 9 4 -4 7 10 12 14 -1 18 -7 13 -2 -8 -12 23 -11 -3 -10 -18 -5 -13 -9
right_child=5 6 3 21 -6 11 8 16 19 17 15 22 -14 -15 -16 -17 20 -19 -20 -21 -22 -23 -24 -25
leaf_value=-0.060995341482088197 -0.011089919981518615 -0.019863229417852183 -0.024173794807763854 -0.0051856817037376213 -0.0097032577342192408 0.012614568082888626 6.0470338195303355e-05 -0.0017108877420505104 0.0091124301564952416 -0.038420445620323228 -0.0091876720519096892 0.018755543596945017 0.0042024256574907087 0.0035361601110722486 0.0062021850936857916 2.2844929853396663e-05 0.0067719703108001265 -0.027241038468853996 -0.0071735235745915378 0.014718509851771977 0.021335089145725857 0.0026132179295612372 0.027560674429006494 0.012438713467015191
leaf_weight=458 1339 1275 7786 11375 7698 7723 8233 78 4073 1532 1480 9026 8476 1356 4817 2907 129 930 626 2490 2592 344 238 1262
leaf_count=458 1339 1275 7786 11375 7698 7723 8233 78 4073 1532 1480 9026 8476 1356 4817 2907 129 930 626 2490 2592 344 238 1262
internal_value=0 -0.0066461 -0.0143788 -0.0118002 -0.0169796 0.0115017 0.00234702 0.00638811 0.00530963 -0.0384007 -0.0068937 0.016087 0.00228855 -0.00373075 0.00232749 -0.00308442 0.0176652 -0.0341975 -0.0156845 0.0112394 0.0206447 -0.00495675 0.0189818 0.0116151
internal_weight=0 56024 30123 27203 15484 32219 25901 15232 19613 2920 6288 16987 11171 2695 13050 4387 4061 2462 1901 6563 2721 11719 9264 1340
internal_count=88243 56024 30123 27203 15484 32219 25901 15232 19613 2920 6288 16987 11171 2695 13050 4387 4061 2462 1901 6563 2721 11719 9264 1340
is_linear=0
shrinkage=0.054043


Tree=18
num_leaves=25
num_cat=0
split_feature=10 2 1 2 1 10 2 1 2 1 2 1 1 1 1 2 1 2 1 2 1 1 1 1
split_gain=2064.01 1182.69 581.477 270.89 232.68 218.277 210.166 156.069 129.31 68.6684 78.8718 66.7774 61.7427 49.752 44.337 43.0888 25.5707 23.7022 21.7804 18.0666 8.21303 7.76068 7.45669 6.53823
threshold=-0.12617859211513052 1.0000000180025095e-35 -0.69440398499691114 -0.43442450349370854 1.3126658289936612 -1.1221042423723222 1.0000000180025095e-35 -0.87563736682274784 0.94193979316021537 -0.1244830863093085 -0.43442450349370854 -0.9172603410924226 -0.69440398499691114 1.4560337316285212 0.38758690217192066 -0.43442450349370854 -0.99575763838603171 1.6301219414871775 -0.71492642889989799 0.94193979316021537 0.55684542972955964 -1.0265206495826338 -0.51672180372122867 0.14391909441194431
decision_type=2 2 2 2 2 2 2 2 2 2 2 2 2 2 2 2 2 2 2 2 2 2 2 2
left_child=1 2 3 7 6 16 14 -1 18 10 -4 -5 -10 -6 15 -2 21 22 -7 -18 -16 -3 -8 -11
right_child=4 5 9 11 13 8 17 -9 12 23 -12 -13 -14 -15 20 -17 19 -19 -20 -21 -22 -23 -24 -25
leaf_value=-0.046007545741727968 -0.010374753145050574 -0.039963789778266465 -0.017775921581504105 -0.030337418348267864 0.011777830015250321 -0.0038520321345562876 0.00061540370148561443 -0.025410452882168279 0.0043230615161444089 -0.0047733858432477032 -0.0047163051577610617 -0.011782507546381098 0.011654416752963933 0.017790861959202858 0.0036409023924825605 0.0032913396433446617 -0.018355858699675331 0.022547186950227865 0.0022748053385179944 -0.0071303973505741263 0.0085966272081634161 -0.021721051097574478 0.014388730198780359 0.0028897101157118001
leaf_weight=1319 1369 84 3010 632 6817 5328 120 5795 10746 11099 2450 5465 4878 9791 7777 1327 620 1340 2485 1290 1117 360 2650 335
leaf_count=1319 1369 84 3010 632 6817 5328 120 5795 10746 11099 2450 5465 4878 9791 7777 1327 620 1340 2485 1290 1117 360 2650 335
internal_value=0 -0.00629552 -0.0135716 -0.0220651 0.0108635 0.00219766 0.00614647 -0.0292293 0.00377331 -0.00692981 -0.0119158 -0.0137059 0.006612 0.0153227 0.00242298 -0.00364816 -0.01349 0.0166465 -0.00190333 -0.0107743 0.00426329 -0.0251724 0.0137921 -0.00454887
internal_weight=0 55896 30105 13211 32308 25791 15700 7114 23437 16894 5460 6097 15624 16608 11590 2696 2354 4110 7813 1910 8894 444 2770 11434
internal_count=88204 55896 30105 13211 32308 25791 15700 7114 23437 16894 5460 6097 15624 16608 11590 2696 2354 4110 7813 1910 8894 444 2770 11434
is_linear=0
shrinkage=0.054043


Tree=19
num_leaves=25
num_cat=0
split_feature=10 2 1 1 1 1 2 2 1 2 1 2 1 1 2 2 2 2 2 1 2 2 1 1
split_gain=1846.94 1058.31 525.85 208.343 207.873 199.25 193.906 191.337 127.813 99.5956 58.6273 56.0634 47.0074 36.4314 38.5573 33.802 31.4393 21.2096 13.107 12.5924 10.0472 7.21595 6.05042 5.53583
threshold=-0.12617859211513052 1.0000000180025095e-35 -0.78516519160026188 0.98443059957393741 -0.45721910364756385 -0.75213108477485269 1.0000000180025095e-35 -0.43442450349370854 -0.99575763838603171 1.6301219414871775 -0.94203592121147939 -0.43442450349370854 1.9901127648055088 0.38758690217192066 -0.43442450349370854 1.6301219414871775 0.94193979316021537 1.6301219414871775 1.6301219414871775 -0.64439860327109733 -0.43442450349370854 0.94193979316021537 1.0000000180025095e-35 2.6360947336866185
decision_type=2 2 2 2 2 2 2 2 2 2 2 2 2 2 2 2 2 2 2 2 2 2 2 2
left_child=1 2 8 6 7 10 13 -4 20 16 18 -10 -5 14 -2 -12 -7 21 -3 -11 -1 -8 -6 -14
right_child=3 5 4 12 22 9 17 -9 11 19 15 -13 23 -15 -16 -17 -18 -19 -20 -21 -22 -23 -24 -25
leaf_value=-0.053809058753346718 -0.0098140702484478884 -0.023217947676312297 -0.020674856287547668 0.011285545308763146 -0.0046240991887216394 -0.0006060366754233401 0.010258319745994273 -0.0076635147116902802 -0.030636770480270498 0.0084020566631768673 -0.0070729311143960033 -0.01834700627389272 0.016681496841064444 0.0037578505862958301 0.0031134657943821683 0.0020831259616410679 0.0047114047018827305 0.021328669197383895 -0.009926922360918378 0.013317851537208431 -0.037380206808766005 0.015775304135866624 0.0023976651877743822 0.022578337242721142
leaf_weight=542 1369 624 6709 7729 11435 6510 1370 6498 2502 4070 3592 1913 8770 8512 1327 1752 6480 1340 332 2431 136 1400 370 491
leaf_count=542 1369 624 6709 7729 11435 6510 1370 6498 2502 4070 3592 1913 8770 8512 1327 1752 6480 1340 332 2431 136 1400 370 491
internal_value=0 -0.0059553 -0.0128382 0.0102764 -0.00961517 0.00207889 0.00570588 -0.0142731 -0.0286666 0.00477947 -0.0062762 -0.0253117 0.0143972 0.00202382 -0.003451 -0.00407117 0.00204654 0.0157469 -0.0186022 0.0102403 -0.0505136 0.0130467 -0.00440402 0.0169941
internal_weight=0 55896 30105 32308 25012 25791 15318 13207 5093 19491 6300 4415 16990 11208 2696 5344 12990 4110 956 6501 678 2770 11805 9261
internal_count=88204 55896 30105 32308 25012 25791 15318 13207 5093 19491 6300 4415 16990 11208 2696 5344 12990 4110 956 6501 678 2770 11805 9261
is_linear=0
shrinkage=0.054043


Tree=20
num_leaves=25
num_cat=0
split_feature=10 2 1 2 1 1 2 1 2 1 1 2 1 1 1 2 1 2 1 2 1 1 1 1
split_gain=1652.71 947.016 472.942 216.336 186.444 179.005 168.339 129.019 107.144 55.4175 53.05 73.0409 48.0088 40.0691 35.4758 34.5024 24.5086 18.9791 18.434 18.1181 6.99716 6.94281 6.74286 5.41412
threshold=-0.12617859211513052 1.0000000180025095e-35 -0.69440398499691114 -0.43442450349370854 1.3126658289936612 -0.85949193984432559 1.0000000180025095e-35 -0.96272353156062251 1.6301219414871775 -0.9172603410924226 -0.45721910364756385 -0.43442450349370854 -0.64439860327109733 1.4560337316285212 0.38758690217192066 -0.43442450349370854 -0.99575763838603171 1.6301219414871775 -0.71492642889989799 0.94193979316021537 -1.0265206495826338 0.62576284500430168 -0.37223888783021869 1.0000000180025095e-35
decision_type=2 2 2 2 2 2 2 2 2 2 2 2 2 2 2 2 2 2 2 2 2 2 2 2
left_child=1 2 3 7 6 16 14 -1 12 -5 11 -4 -7 -6 15 -2 20 22 -10 -18 -3 -16 -8 -12
right_child=4 5 10 9 13 8 17 -9 18 -11 23 -13 -14 -15 21 -17 19 -19 -20 -21 -22 -23 -24 -25
leaf_value=-0.049099567857620603 -0.0092836883889978218 -0.036839994425089867 -0.01700520399691996 -0.027485019203021415 0.010531416543668889 -0.0011211586794083234 0.0032861451657038095 -0.023892847567880859 0.0068720817992960533 -0.010581881926849222 -0.0043741989875639683 -0.0040472621575480608 0.0053972415757837502 0.015927676680106653 0.0032843494296175726 0.0029452048143675143 -0.015977311142698691 0.020176002798233776 0.012511579549748837 -0.0055968118870326749 -0.019517874663946819 0.00813047067529994 0.013126719851019946 0.0022680881598158439
leaf_weight=653 1369 84 2639 632 6817 10609 221 6461 5170 5465 11435 2450 4790 9791 7925 1327 721 1340 2517 1540 360 969 2549 370
leaf_count=653 1369 84 2639 632 6817 10609 221 6461 5170 5465 11435 2450 4790 9791 7925 1327 721 1340 2517 1540 360 969 2549 370
internal_value=0 -0.00563345 -0.0121444 -0.0198043 0.00972107 0.00196654 0.00549859 -0.0262066 0.0035077 -0.012334 -0.00615439 -0.0107669 0.000906449 0.0137127 0.00216616 -0.0032645 -0.0111866 0.0148959 0.00871866 -0.008907 -0.022795 0.00381233 0.0123416 -0.00416601
internal_weight=0 55896 30105 13211 32308 25791 15700 7114 23086 6097 16894 5089 15399 16608 11590 2696 2705 4110 7687 2261 444 8894 2770 11805
internal_count=88204 55896 30105 13211 32308 25791 15700 7114 23086 6097 16894 5089 15399 16608 11590 2696 2705 4110 7687 2261 444 8894 2770 11805
is_linear=0
shrinkage=0.054043


Tree=21
num_leaves=25
num_cat=0
split_feature=10 2 1 10 1 1 2 1 2 1 2 1 2 1 1 2 1 6 2 2 1 2 1 1
split_gain=1479.58 849.573 432.051 170.471 165.022 158.641 150.38 105.891 82.9881 69.1922 72.5779 52.3959 48.3266 47.7007 28.8742 26.9315 17.3728 12.2153 16.7086 11.8793 9.23776 5.3266 5.0798 3.74697
threshold=-0.20260883987764952 1.0000000180025095e-35 -0.75213108477485269 0.50580760287182469 -0.78516519160026188 -0.45721910364756385 -0.43442450349370854 -0.96272353156062251 0.94193979316021537 1.4560337316285212 0.94193979316021537 0.78738221017005827 -0.43442450349370854 -0.94203592121147939 -0.69440398499691114 1.6301219414871775 -1.0265206495826338 0.56144814736275539 1.0000000180025095e-35 1.6301219414871775 -0.69440398499691114 1.6301219414871775 2.3821862442111392 1.0000000180025095e-35
decision_type=2 2 2 2 2 2 2 2 2 2 2 2 2 2 2 2 2 2 2 2 2 2 2 2
left_child=1 2 7 17 13 6 -4 16 20 10 11 -5 -9 19 -10 -15 -1 -2 -19 -3 -6 -12 -11 -7
right_child=3 4 5 9 8 23 -8 12 14 22 21 -13 -14 15 -16 -17 -18 18 -20 -21 -22 -23 -24 -25
leaf_value=-0.049785046060997235 0.003174132185540789 -0.021319275495342443 -0.018397903869091587 0.0020557141434167951 -0.0022153435701111972 -0.0041354193055616736 -0.0068047476744311402 -0.027067243456455392 0.0047991070095284782 0.014695844527589741 0.014932360521796853 0.0098648299204593028 -0.01547344430102718 -0.0065669736019459586 0.01005244132283825 0.0017824340772602265 -0.034931873015582676 -0.022690953189592574 0.0020362899730200427 -0.0087449751891317574 0.0019690423894706049 0.01986817598242669 0.019293579625949804 0.0016808162155300477
leaf_weight=457 8480 629 6577 3773 4179 11340 6495 2453 8214 9028 1311 7493 1836 3457 4866 1675 463 128 212 337 2441 1245 761 333
leaf_count=457 8480 629 6577 3773 4179 11340 6495 2453 8214 9028 1311 7493 1836 3457 4866 1675 463 128 212 337 2441 1245 761 333
internal_value=0 -0.00533534 -0.0115265 0.00918214 0.00185325 -0.00854863 -0.0126377 -0.025673 0.00425805 0.0115769 0.00911486 0.00724955 -0.0221043 -0.0059156 0.00675344 -0.00384186 -0.04231 0.00277142 -0.00727279 -0.0169326 -0.00067243 0.0173365 0.0150533 -0.0039695
internal_weight=0 55752 29954 32431 25798 24745 13072 5209 19700 23611 13822 11266 4289 6098 13080 5132 920 8820 340 966 6620 2556 9789 11673
internal_count=88183 55752 29954 32431 25798 24745 13072 5209 19700 23611 13822 11266 4289 6098 13080 5132 920 8820 340 966 6620 2556 9789 11673
is_linear=0
shrinkage=0.054043


Tree=22
num_leaves=25
num_cat=0
split_feature=10 2 1 1 2 10 1 2 1 2 1 1 1 2 1 2 6 2 1 1 2 1 1 2
split_gain=1323.98 760.227 387.968 185.25 156.837 152.543 148.784 91.8318 61.9155 64.9452 56.3668 46.8857 40.4602 19.5706 15.4817 13.5884 10.9307 14.9514 10.4732 8.10392 4.76643 4.73145 3.3644 1.98957
threshold=-0.20260883987764952 1.0000000180025095e-35 -0.80680253850806738 -0.45721910364756385 -0.43442450349370854 0.50580760287182469 -0.87563736682274784 1.6301219414871775 1.4560337316285212 0.94193979316021537 -1.0265206495826338 0.78738221017005827 -0.71492642889989799 0.94193979316021537 -0.71492642889989799 -0.43442450349370854 0.56144814736275539 1.0000000180025095e-35 -1.0265206495826338 -0.97924058497332711 1.6301219414871775 2.9686656396630906 0.14391909441194431 0.94193979316021537
decision_type=2 2 2 2 2 2 2 2 2 2 2 2 2 2 2 2 2 2 2 2 2 2 2 2
left_child=1 2 10 4 -4 16 13 12 9 11 -1 -7 -8 19 -9 -12 23 -18 -15 -3 -11 -10 -5 -2
right_child=5 6 3 22 -6 8 7 14 21 20 15 -13 -14 18 -16 -17 17 -19 -20 -21 -22 -23 -24 -25
leaf_value=-0.047094511025755077 0.002911254662009297 -0.028552015317253113 -0.018216045362263778 -0.0039032204482145122 -0.0072996887151901748 0.0019446170090400578 -0.0012366768427888571 0.0061561225621587015 0.014057511352250446 0.014125370622173882 -0.029518641922729901 0.0093317052254119175 0.0046561381876416954 -0.029883779914929996 0.011307410016101409 -0.021188853786533051 -0.021464665896833265 0.0019262426570703377 -0.0070242309852375784 -0.015447893980375877 0.018794440528769274 0.021986077913177578 0.0019233274692999932 0.010504842582946322
leaf_weight=457 8378 182 7726 11376 7650 3773 10700 5347 9564 1311 1537 7493 4990 61 2501 911 128 212 1449 568 1245 225 297 102
leaf_count=457 8378 182 7726 11376 7650 3773 10700 5347 9564 1311 1537 7493 4990 61 2501 911 128 212 1449 568 1245 225 297 102
internal_value=0 -0.005047 -0.0109036 -0.008888 -0.0127848 0.00868591 0.0017531 0.00302482 0.0109512 0.00862226 -0.0296714 0.00685776 0.000637456 -0.011492 0.00779773 -0.0264188 0.00262164 -0.00687975 -0.0079477 -0.0186278 0.0163996 0.0142397 -0.00375497 0.00300259
internal_weight=0 55752 29954 27049 15376 32431 25798 23538 23611 13822 2905 11266 15690 2260 7848 2448 8820 340 1510 750 2556 9789 11673 8480
internal_count=88183 55752 29954 27049 15376 32431 25798 23538 23611 13822 2905 11266 15690 2260 7848 2448 8820 340 1510 750 2556 9789 11673 8480
is_linear=0
shrinkage=0.054043


Tree=23
num_leaves=25
num_cat=0
split_feature=10 2 1 1 10 1 2 1 2 1 2 1 1 2 1 2 2 1 6 2 1 1 2 1
split_gain=1184.75 680.278 352.191 136.741 136.501 125.55 120.476 85.8743 69.9117 55.4042 58.1152 41.9549 39.1611 38.3724 22.2909 17.5833 15.8618 13.0575 9.78114 13.379 6.86679 4.28463 4.26516 3.01935
threshold=-0.20260883987764952 1.0000000180025095e-35 -0.75213108477485269 -0.75213108477485269 0.50580760287182469 -0.45721910364756385 -0.43442450349370854 -0.96272353156062251 0.94193979316021537 1.4560337316285212 0.94193979316021537 0.78738221017005827 -0.89665531790980413 -0.43442450349370854 -0.64439860327109733 0.94193979316021537 0.94193979316021537 -1.0265206495826338 0.56144814736275539 1.0000000180025095e-35 -0.64439860327109733 2.3821862442111392 1.6301219414871775 1.0000000180025095e-35
decision_type=2 2 2 2 2 2 2 2 2 2 2 2 2 2 2 2 2 2 2 2 2 2 2 2
left_child=1 2 7 12 18 6 -4 17 20 10 11 -6 16 -9 -10 -14 -3 -1 -2 -20 -5 -11 -12 -7
right_child=4 3 5 8 9 23 -8 13 14 21 22 -13 15 -15 -16 -17 -18 -19 19 -21 -22 -23 -24 -25
leaf_value=-0.044549381240277151 0.0028403234837659709 -0.018844050999079758 -0.016419176281929616 -0.001992066782897481 0.0018395240858564592 -0.0037009870067036439 -0.0060425018189422426 -0.024295286559381641 0.004464571951449739 0.013141925925040236 0.013361993531471874 0.0088273911626098669 -0.007329596331493984 -0.013964302123245939 0.0091011885881210515 -6.0470387165821242e-05 -0.0083146868863226472 -0.031672398686874659 -0.020304650910936764 0.0018221426733301472 0.0016338903233402342 0.017364499426958904 0.017778732056739893 0.0015200789709639573
leaf_weight=457 8480 623 6577 4147 3773 11340 6495 2453 8147 9028 1311 7493 1456 1836 4820 2923 1269 463 128 212 2413 761 1245 333
leaf_count=457 8480 623 6577 4147 3773 11340 6495 2453 8147 9028 1311 7493 1456 1836 4820 2923 1269 463 128 212 2413 761 1245 333
internal_value=0 -0.00477425 -0.0103144 0.00165836 0.0082165 -0.0076257 -0.0112634 -0.0230866 0.00388806 0.0103594 0.00815629 0.00648714 -0.00528462 -0.0198729 0.00618806 -0.00247743 -0.0117818 -0.0380689 0.00247996 -0.00650794 -0.000658312 0.0134702 0.0155133 -0.00355204
internal_weight=0 55752 29954 25798 32431 24745 13072 5209 19527 23611 13822 11266 6271 4289 12967 4379 1892 920 8820 340 6560 9789 2556 11673
internal_count=88183 55752 29954 25798 32431 24745 13072 5209 19527 23611 13822 11266 6271 4289 12967 4379 1892 920 8820 340 6560 9789 2556 11673
is_linear=0
shrinkage=0.054043


Tree=24
num_leaves=25
num_cat=0
split_feature=10 2 1 1 2 2 1 1 2 1 1 2 1 2 1 1 2 1 1 1 2 1 1 1
split_gain=1061.38 452.75 438.348 174.561 117.82 81.4889 75.337 50.9108 51.8527 49.1866 40.7034 62.4679 32.5553 22.0017 19.6876 14.0307 7.34061 6.60433 6.35269 4.18167 3.87191 1.15885 1.04716 0.580218
threshold=0.49599802726356618 0.94193979316021537 -0.78516519160026188 -0.041897756480982574 -0.43442450349370854 1.0000000180025095e-35 -0.75213108477485269 1.9901127648055088 0.94193979316021537 -0.96272353156062251 0.78738221017005827 -0.43442450349370854 -0.94203592121147939 1.6301219414871775 -0.94203592121147939 -0.64439860327109733 1.6301219414871775 -1.0265206495826338 -0.64439860327109733 2.9686656396630906 1.6301219414871775 0.55684542972955964 2.3821862442111392 1.4560337316285212
decision_type=2 2 2 2 2 2 2 2 2 2 2 2 2 2 2 2 2 2 2 2 2 2 2 2
left_child=1 2 4 5 9 -4 14 8 10 -1 11 -2 -6 15 17 -8 -16 -3 -15 22 -10 -5 -9 -12
right_child=7 6 3 21 12 -7 13 19 20 -11 23 -13 -14 18 16 -17 -18 -19 -20 -21 -22 -23 -24 -25
leaf_value=-0.039708553714903748 -0.0080578882152951489 -0.027895976111539357 -0.0074256640003310644 0.0025307503990158282 -0.024091416104162187 -0.00069687189669406259 0.0016943722318588047 0.012569328516747729 0.012637254255930276 -0.023089065130772645 0.0083509738858895902 0.0065259867998623388 -0.010588582211900803 0.0067259877259019498 -0.0032652039125387372 0.0068375804261827785 0.0016334693728602744 -0.0093418885010746518 0.010153104246824789 0.019859454781611701 0.016813407815093415 0.0051941827391689148 0.01499655847995634 0.010214596773528753
leaf_weight=664 1278 62 24806 8094 615 6670 4081 8474 1312 2400 7475 2609 3430 4077 1822 2497 1753 582 2579 246 1282 507 553 522
leaf_count=664 1278 62 24806 8094 615 6670 4081 8474 1312 2400 7475 2609 3430 4077 1822 2497 1753 582 2579 246 1282 507 553 522
internal_value=0 -0.0035784 -0.00632915 -0.00413533 -0.0186968 -0.00599978 0.00385851 0.00978105 0.00777861 -0.0266907 0.00626758 0.00173098 -0.0126415 0.0058633 -0.00243002 0.00364673 -0.000863141 -0.0111282 0.00805389 0.0129075 0.0147012 0.00268775 0.012718 0.00847262
internal_weight=0 64639 47186 40077 7109 31476 17453 23751 14478 3064 11884 3887 4045 13234 4219 6578 3575 644 6656 9273 2594 8601 9027 7997
internal_count=88390 64639 47186 40077 7109 31476 17453 23751 14478 3064 11884 3887 4045 13234 4219 6578 3575 644 6656 9273 2594 8601 9027 7997
is_linear=0
shrinkage=0.054043


Tree=25
num_leaves=25
num_cat=0
split_feature=10 2 1 1 2 1 1 1 1 2 1 2 2 2 1 1 2 1 1 1 2 1 1 1
split_gain=949.762 405.136 394.559 191.098 248.198 67.4141 57.6668 51.22 45.5568 46.3996 36.4229 55.8985 25.2182 19.6879 17.6693 12.5552 6.70454 5.68461 5.60628 3.7419 3.46472 0.937035 0.519199 0.252656
threshold=0.49599802726356618 0.94193979316021537 -0.80680253850806738 -0.083190421395145528 -0.43442450349370854 -0.75213108477485269 -1.0265206495826338 0.14391909441194431 1.9901127648055088 0.94193979316021537 0.78738221017005827 -0.43442450349370854 -0.43442450349370854 1.6301219414871775 -0.95442371127100789 -0.64439860327109733 1.6301219414871775 -0.64439860327109733 -1.0265206495826338 2.9686656396630906 1.6301219414871775 2.3821862442111392 1.4560337316285212 -0.33503421618147805
decision_type=2 2 2 2 2 2 2 2 2 2 2 2 2 2 2 2 2 2 2 2 2 2 2 2
left_child=1 2 6 4 -4 14 -1 -5 9 10 11 -2 -8 15 18 -7 -16 -15 -3 21 -11 -10 -12 -22
right_child=8 5 3 7 -6 13 12 -9 19 20 22 -13 -14 17 16 -17 -18 -19 -20 -21 23 -23 -24 -25
leaf_value=-0.04006624060778266 -0.0076224154707704951 -0.026388393092663789 -0.015364524998793686 -0.0029944900775140692 -0.0037552681838289325 0.0016028033285627507 -0.025214651799653355 0.0025758336597300324 0.011890043659730168 0.011954298826445371 0.0078996624137657682 0.0061733026846272163 -0.015786717217532078 0.006362495031300641 -0.0031817211005452629 0.0064680572044497307 0.0014608126680735729 0.0096044001712164463 -0.0091993344617703511 0.018786189648699176 0.011237258381486264 0.014186099334994682 0.0096625692148586979 0.016028081901424213
leaf_weight=484 1278 62 8234 11092 15510 4081 1529 8528 8474 1312 7475 2609 1809 4077 1846 2497 1789 2579 522 246 33 553 522 1249
leaf_count=484 1278 62 8234 11092 15510 4081 1529 8528 8474 1312 7475 2609 1809 4077 1846 2497 1789 2579 522 246 33 553 522 1249
internal_value=0 -0.00338502 -0.0059871 -0.00451997 -0.00778115 0.00364999 -0.022633 -0.000573301 0.00925245 0.00735823 0.00592886 0.00163743 -0.0201053 0.00554643 -0.0022987 0.00344965 -0.000896854 0.00761864 -0.0110242 0.0122099 0.0139067 0.0120307 0.00801474 0.0159048
internal_weight=0 64639 47186 43364 23744 17453 3822 19620 23751 14478 11884 3887 3338 13234 4219 6578 3635 6656 584 9273 2594 9027 7997 1282
internal_count=88390 64639 47186 43364 23744 17453 3822 19620 23751 14478 11884 3887 3338 13234 4219 6578 3635 6656 584 9273 2594 9027 7997 1282
is_linear=0
shrinkage=0.054043


Tree=26
num_leaves=25
num_cat=0
split_feature=10 2 1 1 2 2 1 1 1 2 1 2 1 2 1 1 1 7 2 1 2 1 1 1
split_gain=849.886 362.964 358.049 136.575 98.8679 68.1696 60.4029 40.9951 40.5902 41.3846 32.3265 49.914 28.04 17.596 16.1167 11.2997 7.01982 5.10611 3.95681 3.34839 3.08943 1.03474 0.838491 0.464597
threshold=0.50580760287182469 0.94193979316021537 -0.73152606947912735 -0.041897756480982574 -0.43442450349370854 1.0000000180025095e-35 -0.75213108477485269 -0.96272353156062251 1.9901127648055088 0.94193979316021537 0.78738221017005827 -0.43442450349370854 -0.9172603410924226 1.6301219414871775 -0.89665531790980413 -0.64439860327109733 -1.0265206495826338 -0.34132499014067169 1.6301219414871775 2.9686656396630906 1.6301219414871775 0.55684542972955964 2.3821862442111392 1.4560337316285212
decision_type=2 2 2 2 2 2 2 2 2 2 2 2 2 2 2 2 2 2 2 2 2 2 2 2
left_child=1 2 4 5 7 -4 14 -1 9 10 11 -2 -6 15 16 -8 -3 -15 -16 22 -11 -5 -10 -12
right_child=8 6 3 21 12 -7 13 -9 19 20 23 -13 -14 17 18 -17 -18 -19 -20 -21 -22 -23 -24 -25
leaf_value=-0.035678927714294803 -0.0071913341466520809 -0.024962284245231614 -0.0065943661188053197 0.0022574903321227803 -0.018135876787566608 -0.00039484850356582071 0.0015161829600021737 -0.020585437813257567 0.011247470177718663 0.011318302156925492 0.0074727411486353937 0.005866845239098222 -0.008414321431400534 0.0059986796679015872 -0.001927059223825515 0.0061277746429341338 -0.0063223183212944151 0.0090588717195801485 0.0020424597569505616 0.017770927311865699 0.015056570215471007 0.004774267650602692 0.013419439462615302 0.0091403749330249088
leaf_weight=664 1275 62 24574 8094 1207 6564 4081 2521 8474 1305 7475 2595 3072 4025 1483 2504 1223 2635 1451 246 1278 507 553 522
leaf_count=664 1275 62 24574 8094 1207 6564 4081 2521 8474 1305 7475 2595 3072 4025 1483 2504 1223 2635 1451 246 1278 507 553 522
internal_value=0 -0.0031995 -0.00566224 -0.00362236 -0.0165227 -0.00528749 0.00345695 -0.0237321 0.00875951 0.00696873 0.00561941 0.00156473 -0.0111565 0.00525076 -0.00217447 0.00326978 -0.00722168 0.00720943 3.60533e-05 0.0115501 0.0131679 0.00240585 0.0113805 0.0075816
internal_weight=0 64667 47203 39739 7464 31138 17464 3185 23723 14450 11867 3870 4279 13245 4219 6585 1285 6660 2934 9273 2583 8601 9027 7997
internal_count=88390 64667 47203 39739 7464 31138 17464 3185 23723 14450 11867 3870 4279 13245 4219 6585 1285 6660 2934 9273 2583 8601 9027 7997
is_linear=0
shrinkage=0.054043


Tree=27
num_leaves=25
num_cat=0
split_feature=10 2 1 2 1 1 1 1 1 2 1 2 2 2 1 1 1 1 2 1 2 1 1 1
split_gain=757.469 323.405 334.325 226.44 63.1404 60.9368 56.2645 53.2461 35.9372 35.9984 28.9125 44.0433 24.1371 15.7033 14.4819 10.0535 6.43644 4.51892 3.17189 2.85516 2.72771 0.881182 0.733733 0.426572
threshold=0.50580760287182469 0.94193979316021537 -0.71492642889989799 -0.43442450349370854 0.14391909441194431 -0.82744885527394818 -0.87563736682274784 -0.75213108477485269 1.9901127648055088 0.94193979316021537 0.78738221017005827 -0.43442450349370854 1.0000000180025095e-35 1.6301219414871775 -0.87563736682274784 -0.69440398499691114 -1.00814542844556 -0.64439860327109733 1.6301219414871775 2.9686656396630906 1.6301219414871775 0.55684542972955964 2.3821862442111392 1.4560337316285212
decision_type=2 2 2 2 2 2 2 2 2 2 2 2 2 2 2 2 2 2 2 2 2 2 2 2
left_child=1 2 3 5 12 -1 -5 14 9 10 11 -2 -4 15 16 -9 -3 -15 -16 22 -11 -6 -10 -12
right_child=8 7 4 6 21 -7 -8 13 19 20 23 -13 -14 17 18 -17 -18 -19 -20 -21 -22 -23 -24 -25
leaf_value=-0.028099616253414724 -0.0068204689339494999 -0.016041416976260964 -0.0040302743074670938 -0.016177706751241961 0.0021688174242207904 -0.015895921091459819 -0.0050072085648491848 0.0014277861064331907 0.010639622535019704 0.010703448733133187 0.0070682051912969229 0.0055592924053590098 0.0015806481513785157 0.0056947206575421712 -0.0014999052448998545 0.0057825893688341727 -0.0049676399733458521 0.0085974248506511617 0.0021796842767650244 0.016810533516521627 0.014239614648300373 0.0045049396687147376 0.012680209429007388 0.0086465383158256855
leaf_weight=1524 1258 173 16698 1501 8030 5536 10740 4070 8455 1316 7471 2522 2586 4056 1360 2499 1346 2552 1377 234 1235 501 548 536
leaf_count=1524 1258 173 16698 1501 8030 5536 10740 4070 8455 1316 7471 2522 2586 4056 1360 2499 1346 2552 1377 234 1235 501 548 536
internal_value=0 -0.00303058 -0.00535744 -0.0108224 -0.00156525 -0.0185303 -0.00637694 0.0032582 0.00828817 0.00659458 0.00533482 0.00143926 -0.00327785 0.00495562 -0.00199719 0.00308445 -0.00622884 0.00681574 0.000351317 0.010917 0.0124154 0.00230601 0.0107638 0.00717386
internal_weight=0 64549 47116 19301 27815 7060 12241 17433 23575 14338 11787 3780 19284 13177 4256 6569 1519 6608 2737 9237 2551 8531 9003 8007
internal_count=88124 64549 47116 19301 27815 7060 12241 17433 23575 14338 11787 3780 19284 13177 4256 6569 1519 6608 2737 9237 2551 8531 9003 8007
is_linear=0
shrinkage=0.054043


Tree=28
num_leaves=25
num_cat=0
split_feature=10 2 1 2 1 1 1 1 1 2 1 2 2 2 1 1 2 2 7 1 1 2 1 1
split_gain=677.81 289.394 299.166 202.626 56.5002 54.5284 50.5449 47.6465 32.1578 32.7023 51.183 21.5987 16.626 14.0519 13.1986 8.99794 5.4746 5.46257 4.0457 3.48576 2.5549 0.951208 0.788512 0.656569
threshold=0.50580760287182469 0.94193979316021537 -0.71492642889989799 -0.43442450349370854 0.14391909441194431 -0.82744885527394818 -0.89665531790980413 -0.75213108477485269 1.9901127648055088 1.0000000180025095e-35 0.78738221017005827 1.0000000180025095e-35 -0.43442450349370854 1.6301219414871775 -0.96272353156062251 -0.64439860327109733 1.6301219414871775 1.6301219414871775 -0.34132499014067169 -1.0265206495826338 2.9686656396630906 0.94193979316021537 0.55684542972955964 2.3821862442111392
decision_type=2 2 2 2 2 2 2 2 2 2 2 2 2 2 2 2 2 2 2 2 2 2 2 2
left_child=1 2 3 5 11 -1 -5 14 9 10 12 -4 -2 15 19 -9 -16 21 -15 -3 23 -11 -6 -10
right_child=8 7 4 6 22 -7 -8 13 20 17 -12 -13 -14 18 16 -17 -18 -19 -20 -21 -22 -23 -24 -25
leaf_value=-0.026581028394985801 -0.0064518702048079277 -0.022368660358798788 -0.0038124662437869481 -0.016316109056681901 0.002051608099505736 -0.01503685749870544 -0.0048596166907848492 0.0013605841894272976 0.010064625298917761 0.0080566478488634484 0.0067861641869194946 0.0014952251723520538 0.002366291771861415 0.0053676428680561883 -0.0028332478702717194 0.005486883138823704 0.0013010038124515301 0.01347006331286613 0.0081034631322972599 -0.0084069596235340129 0.015902041550891512 0.010125001589475158 0.0042614790791536371 0.01199493268176941
leaf_weight=1524 1258 59 16698 1253 8030 5536 10988 4090 8455 1282 8007 2586 1240 4000 1878 2479 1864 1235 2608 455 234 1316 501 548
leaf_count=1524 1258 59 16698 1253 8030 5536 10988 4090 8455 1282 8007 2586 1240 4000 1878 2479 1864 1235 2608 455 234 1316 501 548
internal_value=0 -0.0028668 -0.00506791 -0.0102376 -0.00148066 -0.0175288 -0.00603231 0.00308211 0.00784025 0.00623819 0.00467916 -0.0031007 -0.00207456 0.0046878 -0.00188926 0.00291776 -0.000773856 0.010511 0.0064474 -0.0100096 0.010327 0.00910436 0.00218139 0.0101821
internal_weight=0 64549 47116 19301 27815 7060 12241 17433 23575 14338 10505 19284 2498 13177 4256 6569 3742 3833 6608 514 9237 2598 8531 9003
internal_count=88124 64549 47116 19301 27815 7060 12241 17433 23575 14338 10505 19284 2498 13177 4256 6569 3742 3833 6608 514 9237 2598 8531 9003
is_linear=0
shrinkage=0.054043


Tree=29
num_leaves=25
num_cat=0
split_feature=10 1 2 1 2 2 1 1 2 1 1 1 2 1 2 2 2 2 1 2 1 1 2 1
split_gain=606.528 259.376 217.622 136.813 181.781 91.9053 30.4761 28.8086 30.7841 43.9645 27.9437 17.4217 14.8775 12.7346 11.9887 7.86304 4.8881 4.62275 4.48511 2.84608 2.38196 1.60021 0.851174 0.534169
threshold=0.50580760287182469 -0.80680253850806738 0.94193979316021537 -0.083190421395145528 -0.43442450349370854 1.0000000180025095e-35 -1.00814542844556 1.4560337316285212 1.0000000180025095e-35 0.78738221017005827 0.20333919158659111 -0.71492642889989799 -0.43442450349370854 -0.97924058497332711 1.6301219414871775 1.6301219414871775 1.6301219414871775 -0.43442450349370854 -1.0265206495826338 1.6301219414871775 2.6360947336866185 -1.0265206495826338 0.94193979316021537 1.9901127648055088
decision_type=2 2 2 2 2 2 2 2 2 2 2 2 2 2 2 2 2 2 2 2 2 2 2 2
left_child=1 5 3 4 -3 6 21 8 9 12 -5 14 -2 18 -4 -15 22 -8 -7 -13 23 -1 -10 -9
right_child=7 2 11 10 -6 13 17 20 16 -11 -12 19 -14 15 -16 -17 -18 -19 -20 -21 -22 -23 -24 -25
leaf_value=-0.033108185484760654 -0.0061031918676948023 -0.01284843924388018 0.00072890436938291146 -0.002051221917874769 -0.002914945182593488 -0.025721581947435328 -0.019518966561452605 0.007812508740191829 0.0076212419509941185 0.0063194737378753918 0.0020726366925566675 0.0051229263581065798 0.0022384101627907641 -0.007263734671342878 0.0044141280140589535 -0.00060505885478852176 0.01274210105992757 -0.014551750954758719 -0.012199241876223123 0.007652323193070177 0.013349804168114852 -0.026147384246062361 0.0095778163141983768 0.0095700490507139285
leaf_weight=447 1258 8241 5166 11022 15501 86 1472 536 1282 7471 8500 2563 1240 1574 5147 772 1235 871 429 2635 486 123 1316 8751
leaf_count=447 1258 8241 5166 11022 15501 86 1472 536 1282 7471 8500 2563 1240 1574 5147 772 1235 871 429 2635 486 123 1316 8751
internal_value=0 -0.00271187 -0.00163812 -0.00360715 -0.00636292 -0.0136418 -0.0203989 0.00741654 0.00582683 0.00424422 -0.000255668 0.00385397 -0.00196244 -0.00676189 0.00256812 -0.00507256 0.00994295 -0.0176724 -0.0144573 0.00640514 0.00966162 -0.0316061 0.00861233 0.00946861
internal_weight=0 64549 58775 43264 23742 5774 2913 23575 13802 9969 19522 15511 2498 2861 10313 2346 3833 2343 515 5198 9773 570 2598 9287
internal_count=88124 64549 58775 43264 23742 5774 2913 23575 13802 9969 19522 15511 2498 2861 10313 2346 3833 2343 515 5198 9773 570 2598 9287
is_linear=0
shrinkage=0.054043


Tree=30
num_leaves=25
num_cat=0
split_feature=10 1 2 1 2 2 1 1 2 1 1 1 2 1 2 2 2 2 2 2 1 1 2 1
split_gain=544.648 234.303 194.772 123.197 164.666 83.0906 27.8028 25.6875 27.8453 39.1125 25.1922 15.5861 13.4231 12.1529 10.9657 8.96281 4.4574 4.34496 2.56955 2.53331 2.25171 1.29463 0.765487 0.582573
threshold=0.50580760287182469 -0.80680253850806738 0.94193979316021537 -0.1244830863093085 -0.43442450349370854 1.0000000180025095e-35 -1.00814542844556 1.4560337316285212 1.0000000180025095e-35 0.78738221017005827 0.20333919158659111 -0.71492642889989799 -0.43442450349370854 -1.00814542844556 1.6301219414871775 1.6301219414871775 1.6301219414871775 -0.43442450349370854 1.6301219414871775 1.6301219414871775 2.9686656396630906 -1.0265206495826338 0.94193979316021537 2.3821862442111392
decision_type=2 2 2 2 2 2 2 2 2 2 2 2 2 2 2 2 2 2 2 2 2 2 2 2
left_child=1 5 3 4 -3 6 21 8 9 12 -5 14 -2 19 -4 -15 22 -8 -13 -7 23 -1 -10 -9
right_child=7 2 11 10 -6 13 17 20 16 -11 -12 18 -14 15 -16 -17 -18 -19 -20 -21 -22 -23 -24 -25
leaf_value=-0.031360921505219123 -0.0057782948388208312 -0.01221616107752678 0.00067904708371803284 -0.0019429888848945093 -0.0027490687946862772 -0.021070629176753886 -0.018548761051900543 0.0089065594209592792 0.0072052978245692395 0.0059774841029452686 0.0019597880150835907 0.0048459213862974606 0.0021212366557782129 -0.0075232559150066091 0.0042087151414484771 -0.00081156343040666426 0.012047075939044556 -0.013751639126738872 0.0072462901064849362 -0.010141308105505302 0.014321183910045148 -0.02485273960035941 0.0090546085216913798 0.010727743245767463
leaf_weight=456 1254 8209 5169 11069 15494 178 1477 9004 1300 7440 8571 2570 1259 1742 5114 872 1261 880 2641 95 239 111 1315 544
leaf_count=456 1254 8209 5169 11069 15494 178 1477 9004 1300 7440 8571 2570 1259 1742 5114 872 1261 880 2641 95 239 111 1315 544
internal_value=0 -0.00256846 -0.00154599 -0.00340507 -0.00602778 -0.0129211 -0.0193424 0.00702132 0.00552189 0.00400855 -0.000239796 0.00365463 -0.00182067 -0.00641745 0.00243444 -0.00528431 0.00940791 -0.0167577 0.00606246 -0.0172674 0.00914001 -0.0300868 0.00813526 0.00901032
internal_weight=0 64648 58837 43343 23703 5811 2924 23616 13829 9953 19640 15494 2513 2887 10283 2614 3876 2357 5211 273 9787 567 2615 9548
internal_count=88264 64648 58837 43343 23703 5811 2924 23616 13829 9953 19640 15494 2513 2887 10283 2614 3876 2357 5211 273 9787 567 2615 9548
is_linear=0
shrinkage=0.054043


Tree=31
num_leaves=25
num_cat=0
split_feature=10 1 2 1 2 2 1 1 1 2 1 1 2 1 2 2 1 2 2 2 1 2 2 1
split_gain=487.37 209.662 174.288 113.85 93.0238 74.3524 37.7282 24.8789 23.0718 23.7166 36.4342 13.969 12.0115 10.8748 9.89236 8.02023 4.01086 3.98863 2.26689 2.20283 1.93502 1.20186 0.684984 0.462599
threshold=0.50580760287182469 -0.80680253850806738 0.94193979316021537 -0.64439860327109733 -0.43442450349370854 1.0000000180025095e-35 0.14391909441194431 -1.00814542844556 1.9901127648055088 1.0000000180025095e-35 0.78738221017005827 -0.69440398499691114 -0.43442450349370854 -1.00814542844556 1.6301219414871775 1.6301219414871775 -0.94203592121147939 1.6301219414871775 1.6301219414871775 1.6301219414871775 2.9686656396630906 -0.43442450349370854 0.94193979316021537 2.3821862442111392
decision_type=2 2 2 2 2 2 2 2 2 2 2 2 2 2 2 2 2 2 2 2 2 2 2 2
left_child=1 5 3 4 -3 7 -5 21 9 10 12 14 -2 18 -4 -15 -9 22 -7 -13 23 -1 -11 -10
right_child=8 2 11 6 -6 13 -8 16 20 17 -12 19 -14 15 -16 -17 -18 -19 -20 -21 -22 -23 -24 -25
leaf_value=-0.029512936732015636 -0.0054660182338766615 -0.012713763936215478 0.0006651714539959347 -0.002470601298738515 -0.0039333656056215463 -0.019931909208944169 0.0018456562340493728 -0.020325028525969985 0.0085221714212184007 0.00681590212212133 0.0057394587126973909 0.004635457660023142 0.0020065986690694258 -0.0071166765168079026 0.0039982658593813256 -0.0007677041213716261 -0.014740961456721057 0.011396015376851625 -0.0095932410440634601 0.0068840382613248484 0.013547224350578735 -0.022576505889290787 0.0085652698285601896 0.010147983806917522
leaf_weight=481 1254 5299 5232 18918 10521 178 8605 469 8463 1300 7981 2507 1259 1742 5171 872 1888 1261 95 2584 239 86 1315 544
leaf_count=481 1254 5299 5232 18918 10521 178 8605 469 8463 1300 7981 2507 1259 1742 5171 872 1888 1261 95 2584 239 86 1315 544
internal_value=0 -0.00242965 -0.00146244 -0.00322105 -0.00687441 -0.0122228 -0.00112113 -0.0182971 0.00664187 0.00528691 0.0039526 0.00345712 -0.00172228 -0.00607064 0.00232195 -0.00499873 -0.0158521 0.00889948 -0.0163342 0.00577675 0.00874772 -0.0284609 0.0076956 0.00862037
internal_weight=0 64648 58837 43343 15820 5811 27523 2924 23616 14370 10494 15494 2513 2887 10403 2614 2357 3876 273 5091 9246 567 2615 9007
internal_count=88264 64648 58837 43343 15820 5811 27523 2924 23616 14370 10494 15494 2513 2887 10403 2614 2357 3876 273 5091 9246 567 2615 9007
is_linear=0
shrinkage=0.054043


Tree=32
num_leaves=25
num_cat=0
split_feature=10 1 2 1 2 2 2 1 1 2 1 1 1 2 1 2 1 2 2 2 1 1 2 1
split_gain=436.116 187.613 158.575 181.637 66.5331 63.0432 27.0392 22.2625 20.6454 21.2224 32.6026 20.5049 14.1429 10.7483 10.0004 5.62631 4.65334 3.9425 3.92535 3.56917 1.73152 1.09741 0.612948 0.413949
threshold=0.50580760287182469 -0.80680253850806738 1.0000000180025095e-35 -0.45721910364756385 1.0000000180025095e-35 -0.43442450349370854 1.6301219414871775 -1.00814542844556 1.9901127648055088 1.0000000180025095e-35 0.78738221017005827 0.20333919158659111 -0.64439860327109733 -0.43442450349370854 -0.97924058497332711 1.6301219414871775 -0.73152606947912735 -0.43442450349370854 1.6301219414871775 1.6301219414871775 2.9686656396630906 -1.0265206495826338 0.94193979316021537 2.3821862442111392
decision_type=2 2 2 2 2 2 2 2 2 2 2 2 2 2 2 2 2 2 2 2 2 2 2 2
left_child=1 4 3 5 7 -3 12 21 9 10 13 -5 -4 -2 18 -16 -8 -9 -6 22 23 -1 -11 -10
right_child=8 2 6 11 14 -7 16 17 20 19 -12 -13 -14 -15 15 -17 -18 -19 -20 -21 -22 -23 -24 -25
leaf_value=-0.028095776815375978 -0.0051706183802011701 -0.011438570538079347 -0.0003360497665377379 -0.0017426801159506594 -0.015810229301040916 -0.0045621842961916003 0.0015621691982594934 -0.016701464628635535 0.0080616078260305254 0.006447550218502864 0.0054292811156514765 0.0017541304773026633 0.0031631888965654394 0.0018981558889045068 -0.0060950686362342306 -0.00048795155438804603 0.0052517539440808591 -0.012131910142496642 -0.0060505371949772921 0.010780140126188291 0.012815091454046159 -0.022103776925635383 0.0081023772844781329 0.0095995559551721784
leaf_weight=456 1254 7850 10546 11428 348 7727 1177 1477 8463 1300 7981 8571 4960 1259 1572 783 6578 880 184 1261 239 111 1315 544
leaf_count=456 1254 7850 10546 11428 348 7727 1177 1477 8463 1300 7981 8571 4960 1259 1572 783 6578 880 184 1261 239 111 1315 544
internal_value=0 -0.00229835 -0.0013834 -0.00365205 -0.0115622 -0.00802753 0.00208633 -0.0173083 0.00628292 0.00500119 0.00373899 -0.000244047 0.000783273 -0.0016292 -0.00574256 -0.00423079 0.00469177 -0.0149954 -0.0124347 0.00841852 0.00827497 -0.0269227 0.00727971 0.0081545
internal_weight=0 64648 58837 35576 5811 15577 23261 2924 23616 14370 10494 19999 15506 2513 2887 2355 7755 2357 532 3876 9246 567 2615 9007
internal_count=88264 64648 58837 35576 5811 15577 23261 2924 23616 14370 10494 19999 15506 2513 2887 2355 7755 2357 532 3876 9246 567 2615 9007
is_linear=0
shrinkage=0.054043


Tree=33
num_leaves=25
num_cat=0
split_feature=10 2 1 2 1 1 1 1 1 2 1 2 2 1 2 1 2 1 2 1 1 1 1 1
split_gain=392.162 170.229 186.291 116.832 34.7533 30.2692 30.0004 29.9092 18.5887 20.2753 28.5792 15.739 9.68113 8.10083 7.67893 4.77116 3.37788 2.80035 2.63298 2.29214 1.5558 0.667725 0.597557 0.416579
threshold=0.30662441030431098 0.94193979316021537 -0.71492642889989799 -0.43442450349370854 -0.89665531790980413 1.0000000180025095e-35 -0.73152606947912735 -0.89665531790980413 1.4560337316285212 1.0000000180025095e-35 0.78738221017005827 -0.43442450349370854 -0.43442450349370854 -0.94203592121147939 1.6301219414871775 -0.64439860327109733 1.6301219414871775 -1.0265206495826338 1.6301219414871775 -0.64439860327109733 2.9686656396630906 -0.33503421618147805 0.55684542972955964 2.3821862442111392
decision_type=2 2 2 2 2 2 2 2 2 2 2 2 2 2 2 2 2 2 2 2 2 2 2 2
left_child=1 2 3 4 -1 11 13 -5 9 10 12 -4 -2 17 15 -8 21 -3 -15 -16 23 -11 -7 -10
right_child=8 6 5 7 -6 22 14 -9 20 16 -12 -13 -14 18 19 -17 -18 -19 -20 -21 -22 -23 -24 -25
leaf_value=-0.022645659432169403 -0.0049460742582014168 -0.017873362097990259 -0.0031596959318254919 -0.012667670472394883 -0.01191305781565483 0.0015215378902027987 0.0012085837106884864 -0.003842961149187557 0.007546862804475315 0.0026550114119555089 0.0050520517730153307 0.00033311364735649161 0.0017546436857713832 -0.0019537194957086044 0.0041574894505896319 0.0042103091353351959 0.010200595691730546 -0.0058932592901985714 0.00093712779031287976 0.0062273592032368007 0.012122525531565993 0.0070127929598169736 0.0035118615613724956 0.0090894181350678997
leaf_weight=1031 1264 63 14207 1250 6064 8072 4063 10930 9034 107 7442 5128 1255 1875 4003 2497 1298 597 1807 2563 231 2552 466 542
leaf_count=1031 1264 63 14207 1250 6064 8072 4063 10930 9034 107 7442 5128 1255 1875 4003 2497 1298 597 1807 2563 231 2552 466 542
internal_value=0 -0.00218641 -0.00387482 -0.00795988 -0.0134727 -0.00104988 0.00237077 -0.00474862 0.00593778 0.00466796 0.0033679 -0.00223334 -0.00160769 -0.00152329 0.0036589 0.00235116 0.00794064 -0.00703681 -0.00053499 0.00496545 0.00773989 0.00683743 0.00163017 0.00763417
internal_weight=0 64616 47148 19275 7095 27873 17468 12180 23725 13918 9961 19335 2519 4342 13126 6560 3957 660 3682 6566 9807 2659 8538 9576
internal_count=88341 64616 47148 19275 7095 27873 17468 12180 23725 13918 9961 19335 2519 4342 13126 6560 3957 660 3682 6566 9807 2659 8538 9576
is_linear=0
shrinkage=0.054043


Tree=34
num_leaves=25
num_cat=0
split_feature=10 2 1 2 1 1 1 2 1 2 1 1 1 2 2 1 2 1 1 2 1 1 1 1
split_gain=350.92 153.561 232.974 71.9461 47.9229 37.9311 22.4601 17.0073 16.6397 17.4023 15.4145 14.2268 13.4369 20.5421 7.01656 6.57313 4.17866 2.12795 1.3388 1.25146 0.526095 0.332267 0.289521 0.196916
threshold=0.30662441030431098 1.0000000180025095e-35 -0.45721910364756385 -0.43442450349370854 -0.75213108477485269 -0.82744885527394818 -0.73152606947912735 1.6301219414871775 1.9901127648055088 0.94193979316021537 0.20333919158659111 -0.96272353156062251 0.78738221017005827 -0.43442450349370854 1.6301219414871775 -0.64439860327109733 1.6301219414871775 -0.64439860327109733 2.9686656396630906 1.6301219414871775 0.55684542972955964 2.3821862442111392 1.3126658289936612 -0.33503421618147805
decision_type=2 2 2 2 2 2 2 2 2 2 2 2 2 2 2 2 2 2 2 2 2 2 2 2
left_child=1 2 3 5 11 -1 -5 15 9 12 -4 16 13 -2 -13 -6 -3 -9 21 -11 -12 -10 -14 -21
right_child=8 4 10 6 7 -7 -8 17 18 19 20 14 22 -15 -16 -17 -18 -19 -20 23 -22 -23 -24 -25
leaf_value=-0.019507399896070657 -0.0046787734518856077 -0.01263835379362542 -0.0014797807652525495 -0.0097813320116059404 0.00037855651315203356 -0.010314007071328105 -0.0034267697728919667 0.0039027781164982841 0.0072180788641290801 0.0072865207767424936 0.0014541190367891818 -0.0033493482351149725 0.0037542920104001224 0.0037237831928551251 0.00074571482523917351 0.0028732036435820153 -0.0042039155694961732 0.0058908139726311119 0.011467387711140123 0.0057081914956861584 0.0033220700115085366 0.0085981986790083283 0.0049510810020355909 0.0097617504569641363
leaf_weight=1557 1264 516 11524 2166 8220 8288 6498 4069 8493 1321 8005 3732 642 2593 1817 4938 257 2563 231 36 466 542 7341 1262
leaf_count=1557 1264 516 11524 2166 8220 8288 6498 4069 8493 1321 8005 3732 642 2593 1817 4938 257 2563 231 36 466 542 7341 1262
internal_value=0 -0.00206825 -0.00423784 -0.00860711 0.00113096 -0.011768 -0.00501541 0.00243952 0.00561688 0.00447114 -0.000193283 -0.0029653 0.00358935 0.000970132 -0.00200843 0.00131476 -0.00983415 0.00467107 0.00740474 0.00845755 0.00155688 0.00730087 0.00485483 0.00964933
internal_weight=0 64616 38504 18509 26112 9845 8664 19790 23725 14459 19995 6322 11840 3857 5549 13158 773 6632 9266 2619 8471 9035 7983 1298
internal_count=88341 64616 38504 18509 26112 9845 8664 19790 23725 14459 19995 6322 11840 3857 5549 13158 773 6632 9266 2619 8471 9035 7983 1298
is_linear=0
shrinkage=0.054043


Tree=35
num_leaves=25
num_cat=0
split_feature=10 1 2 1 2 2 2 1 1 2 1 1 7 10 2 2 1 1 2 1 1 1 1 1
split_gain=314.015 138.366 117.199 134.911 48.1649 45.5511 18.5676 18.1466 14.9367 16.6519 23.2842 13.7934 9.78813 7.87189 7.46623 4.6871 3.38124 3.19907 2.61096 2.48524 1.24399 0.803023 0.59362 0.332088
threshold=0.30662441030431098 -0.80680253850806738 1.0000000180025095e-35 -0.45721910364756385 1.0000000180025095e-35 -0.43442450349370854 1.6301219414871775 -1.00814542844556 1.4560337316285212 1.0000000180025095e-35 0.78738221017005827 0.20333919158659111 -0.30434438155266369 -1.5871072657886236 -0.43442450349370854 1.6301219414871775 -0.71492642889989799 -0.94203592121147939 1.6301219414871775 -1.0265206495826338 2.9686656396630906 -1.0265206495826338 -0.33503421618147805 2.3821862442111392
decision_type=2 2 2 2 2 2 2 2 2 2 2 2 2 2 2 2 2 2 2 2 2 2 2 2
left_child=1 4 3 5 7 -3 12 21 9 10 14 -5 -4 19 -2 -15 -8 -9 22 -6 23 -1 -11 -10
right_child=8 2 6 11 13 -7 16 17 20 18 -12 -13 -14 15 -16 -17 -18 -19 -20 -21 -22 -23 -24 -25
leaf_value=-0.024323875299265066 -0.0044259185974669475 -0.0097828020105071457 -0.00020743381437869976 -0.0013998089824164266 -0.020290360996836398 -0.0039377683157029086 0.0031608273697300931 -0.016664299842010965 0.0067562573480166232 0.0022275075375286662 0.0045170318757017545 0.0014727388807882734 0.0026970805415875848 -0.005513665829223348 0.0014585730142016801 -0.00055411231042919455 0.0055409636849544199 -0.011674871530093727 0.0091278465346926636 -0.0098559121066183995 0.010847655062840904 -0.019299865051427483 0.0063363614443575017 0.0081335259934317353
leaf_weight=467 1264 7871 10467 11524 88 7707 5113 469 9034 107 7442 8471 5011 1681 1255 832 2645 1879 1298 275 231 116 2552 542
leaf_count=467 1264 7871 10467 11524 88 7707 5113 469 9034 107 7442 8471 5011 1681 1255 832 2645 1879 1298 275 231 116 2552 542
internal_value=0 -0.00195648 -0.00117063 -0.00312047 -0.00991495 -0.00689105 0.00181447 -0.0147904 0.00531333 0.00417507 0.00299688 -0.000182837 0.000732902 -0.00494625 -0.00149418 -0.00387166 0.00397231 -0.0126715 0.00714094 -0.0123855 0.00692875 -0.0233242 0.00617102 0.00683421
internal_weight=0 64616 58809 35573 5807 15578 23236 2931 23725 13918 9961 19995 15478 2876 2519 2513 7758 2348 3957 363 9807 583 2659 9576
internal_count=88341 64616 58809 35573 5807 15578 23236 2931 23725 13918 9961 19995 15478 2876 2519 2513 7758 2348 3957 363 9807 583 2659 9576
is_linear=0
shrinkage=0.054043


Tree=36
num_leaves=25
num_cat=0
split_feature=10 2 1 1 2 1 1 2 1 2 1 1 2 1 2 1 1 1 2 1 1 2 1 1
split_gain=279.086 124.374 137.799 47.4737 79.7592 33.5006 21.1641 18.0138 13.6145 14.1259 21.9774 11.7897 6.71924 5.51981 5.01044 3.3798 3.27761 2.80891 2.27222 1.566 1.0742 1.02892 0.520937 0.265093
threshold=0.30662441030431098 0.94193979316021537 -0.73152606947912735 -0.083190421395145528 -0.43442450349370854 -0.99575763838603171 -0.73152606947912735 -0.43442450349370854 1.9901127648055088 1.0000000180025095e-35 0.78738221017005827 0.20333919158659111 -0.43442450349370854 -0.89665531790980413 1.6301219414871775 -0.69440398499691114 -1.0265206495826338 -1.0265206495826338 1.6301219414871775 -0.64439860327109733 2.9686656396630906 1.6301219414871775 -0.33503421618147805 2.3821862442111392
decision_type=2 2 2 2 2 2 2 2 2 2 2 2 2 2 2 2 2 2 2 2 2 2 2 2
left_child=1 2 5 4 -4 16 13 -7 9 10 12 -5 -2 17 15 -8 -1 -3 22 -16 23 -15 -11 -10
right_child=8 6 3 11 -6 7 14 -9 20 18 -12 -13 -14 21 19 -17 -18 -19 -20 -21 -22 -23 -24 -25
leaf_value=-0.023322225012917315 -0.0041929443775424154 -0.015624591991816367 -0.0085131389113372157 -0.0012831260126137738 -0.0013666669712953747 -0.0122512030845554 0.0011261711117333923 -0.0064897364534133176 0.00646286395123182 0.0021723738409892158 0.0043410484290924726 0.0013939291255758892 0.0013542631296386775 -0.00096130265449221501 0.0035483429140334218 0.0036631449884204671 -0.016335541626652229 -0.0036438300186576855 0.0086291522889267811 0.0052675899542503754 0.010261414991453052 0.0010226304396412271 0.0060053824961470168 0.007692457757683643
leaf_weight=473 1275 60 7016 11115 13036 2623 4022 4005 8483 108 8016 8463 1276 1523 3999 2479 335 1205 1274 2524 232 1531 2518 545
leaf_count=473 1275 60 7016 11115 13036 2623 4022 4005 8483 108 8016 8463 1276 1523 3999 2479 335 1205 1274 2524 232 1531 2518 545
internal_value=0 -0.001844 -0.00328558 -0.0020189 -0.00386715 -0.0100363 0.00206821 -0.00876981 0.00501231 0.00397661 0.00295068 -0.000125913 -0.00141825 -0.00121017 0.00315538 0.00209359 -0.0204255 -0.00421209 0.00675634 0.00421359 0.0066304 3.32624e-05 0.00584774 0.00653709
internal_weight=0 64409 47066 39630 20052 7436 17343 6628 23727 14467 10567 19578 2551 4319 13024 6501 808 1265 3900 6523 9260 3054 2626 9028
internal_count=88136 64409 47066 39630 20052 7436 17343 6628 23727 14467 10567 19578 2551 4319 13024 6501 808 1265 3900 6523 9260 3054 2626 9028
is_linear=0
shrinkage=0.054043


Tree=37
num_leaves=25
num_cat=0
split_feature=10 2 1 10 1 2 1 1 2 2 1 2 1 2 2 1 1 1 2 1 1 1 1 2
split_gain=250.44 97.9243 112.363 63.4802 36.4043 27.6142 24.4928 20.6986 40.9975 20.2629 11.186 13.251 17.5653 10.9074 5.3477 4.31992 3.86278 3.32554 1.92485 1.81461 1.30663 1.08887 1.00593 0.959626
threshold=-0.3803584962767243 1.0000000180025095e-35 -0.69440398499691114 0.82195917249516581 -0.94203592121147939 0.94193979316021537 -0.87563736682274784 0.20333919158659111 -0.43442450349370854 -0.43442450349370854 1.4560337316285212 1.0000000180025095e-35 1.15026183070284 1.6301219414871775 1.6301219414871775 -0.99575763838603171 -0.73152606947912735 -1.0265206495826338 1.6301219414871775 -0.73152606947912735 -1.0265206495826338 0.55684542972955964 2.6360947336866185 1.6301219414871775
decision_type=2 2 2 2 2 2 2 2 2 2 2 2 2 2 2 2 2 2 2 2 2 2 2 2
left_child=1 2 4 5 17 7 14 8 -2 -6 11 12 -5 16 15 -3 -8 -1 -13 -15 -16 -9 -12 -7
right_child=3 6 -4 10 9 23 13 21 -10 -11 22 18 -14 19 20 -17 -18 -19 -20 -21 -22 -23 -24 -25
leaf_value=-0.021783616610768775 -0.0079433673671084892 -0.013271088165873319 -0.0012651526867593415 -0.0011771408259767283 -0.0098134251620413844 0.0034911906164379735 -0.0019396132420893928 0.0012200983509313664 0.00044284449018405742 -0.0054079099843877178 0.0060811412373100336 0.0056433049773469126 0.0041095269022633496 0.0011029800797014294 -0.01201731942102521 -0.0057324231521238599 0.0003957191909834709 -0.015590163936834449 0.0082367723485282721 0.0033565797981934264 -0.0010185655619954325 0.0030943343939735832 0.0086131881285317503 0.0049816892815571718
leaf_weight=450 2574 271 11676 2495 6400 2495 2778 7991 5029 5824 9300 2539 6945 1412 33 1228 8101 579 1246 3999 716 1021 482 2552
leaf_count=450 2574 271 11676 2495 6400 2495 2778 7991 5029 5824 9300 2539 6945 1412 33 1228 8101 579 1246 3999 716 1021 482 2552
internal_value=0 -0.00291869 -0.00513068 0.00284347 -0.00853625 0.000743872 5.58907e-05 -0.000319593 -0.00239631 -0.00771446 0.00482033 0.00379547 0.00271226 0.000785626 -0.00523209 -0.00709532 -0.000200618 -0.0182987 0.00649706 0.0027685 -0.00150316 0.00143244 0.00620591 0.00424486
internal_weight=0 43467 24929 44669 13253 21662 18538 16615 7603 12224 23007 13225 9440 16290 2248 1499 10879 1029 3785 5411 749 9012 9782 5047
internal_count=88136 43467 24929 44669 13253 21662 18538 16615 7603 12224 23007 13225 9440 16290 2248 1499 10879 1029 3785 5411 749 9012 9782 5047
is_linear=0
shrinkage=0.054043


Tree=38
num_leaves=25
num_cat=0
split_feature=10 2 1 10 1 2 1 2 1 2 1 2 1 2 2 1 1 1 2 1 1 6 1 2
split_gain=224.105 87.8054 100.298 56.8938 32.5758 25.1686 21.917 18.132 17.5622 36.4811 10.3584 11.2565 16.8084 9.76034 4.78531 3.9997 3.45655 2.97581 1.73722 1.62378 1.16922 0.917038 0.889997 0.867831
threshold=-0.39302273314751873 1.0000000180025095e-35 -0.69440398499691114 0.56994666792486959 -0.94203592121147939 0.94193979316021537 -0.87563736682274784 -0.43442450349370854 0.14391909441194431 -0.43442450349370854 1.9901127648055088 1.0000000180025095e-35 0.98443059957393741 1.6301219414871775 1.6301219414871775 -1.0265206495826338 -0.73152606947912735 -1.0265206495826338 1.6301219414871775 -0.73152606947912735 -1.0265206495826338 0.56144814736275539 2.9686656396630906 1.6301219414871775
decision_type=2 2 2 2 2 2 2 2 2 2 2 2 2 2 2 2 2 2 2 2 2 2 2 2
left_child=1 2 4 5 17 8 14 -6 9 -2 11 12 -5 16 15 -3 -8 -1 -13 -15 -16 23 -12 -7
right_child=3 6 -4 10 7 21 13 -9 -10 -11 22 18 -14 19 20 -17 -18 -19 -20 -21 -22 -23 -24 -25
leaf_value=-0.020606364305063241 -0.0075165026030432919 -0.021739872533889492 -0.0012001133171430616 -0.0011573136472958741 -0.009283078125658862 0.003415855058637026 -0.0018347906989349811 -0.0051156501705169602 0.001288403551167378 0.00041835616174844731 0.0058513751191736066 0.005303992337201309 0.0039248302155072941 0.0010433717089972825 -0.011367867094552245 -0.0061933000105078139 0.00037433334725583517 -0.014747624393732971 0.0077546415586803056 0.0031751801261635107 -0.00096351923127425498 -0.00011621952140064531 0.0092413747891955111 0.0048583863611903538
leaf_weight=450 2557 50 11643 2520 6400 2405 2778 5824 8778 5004 9028 2564 7734 1412 33 1449 8101 579 1260 3999 716 152 232 2468
leaf_count=450 2557 50 11643 2520 6400 2405 2778 5824 8778 5004 9028 2564 7734 1412 33 1449 8101 579 1260 3999 716 152 232 2468
internal_value=0 -0.00276304 -0.00485981 0.0026878 -0.00807493 0.000672689 5.28702e-05 -0.00729755 -0.000355997 -0.00226508 0.00453247 0.00360907 0.00267585 0.000743168 -0.00494933 -0.00671186 -0.000189776 -0.0173098 0.00611148 0.00261888 -0.00142192 0.00401751 0.00593631 0.00414645
internal_weight=0 43434 24896 44702 13253 21364 18538 12224 16339 7561 23338 14078 10254 16290 2248 1499 10879 1029 3824 5411 749 5025 9260 4873
internal_count=88136 43434 24896 44702 13253 21364 18538 12224 16339 7561 23338 14078 10254 16290 2248 1499 10879 1029 3824 5411 749 5025 9260 4873
is_linear=0
shrinkage=0.054043


Tree=39
num_leaves=25
num_cat=0
split_feature=10 2 1 10 1 2 1 1 2 2 1 2 2 1 1 1 2 1 1 2 1 6 2 1
split_gain=203.032 78.082 90.1098 50.9787 30.0823 22.2506 20.2903 15.4859 32.6934 13.0423 9.12915 10.1944 8.79591 7.54404 7.18532 4.57297 3.33639 3.15233 1.44527 1.36356 0.810078 0.769406 0.777609 0.616792
threshold=-0.3803584962767243 1.0000000180025095e-35 -0.69440398499691114 0.56994666792486959 -0.87563736682274784 0.94193979316021537 -0.87563736682274784 0.20333919158659111 -0.43442450349370854 -0.43442450349370854 1.9901127648055088 0.94193979316021537 1.6301219414871775 0.98443059957393741 -1.00814542844556 -1.00814542844556 1.6301219414871775 -0.73152606947912735 -0.73152606947912735 0.94193979316021537 2.9686656396630906 0.56144814736275539 1.6301219414871775 0.55684542972955964
decision_type=2 2 2 2 2 2 2 2 2 2 2 2 2 2 2 2 2 2 2 2 2 2 2 2
left_child=1 2 4 5 14 7 15 8 -2 -6 11 13 17 -5 -1 19 -17 -8 -14 -3 -12 22 -7 -9
right_child=3 6 -4 10 9 21 12 23 -10 -11 20 -13 18 -15 -16 16 -18 -19 -20 -21 -22 -23 -24 -25
leaf_value=-0.018756416965385429 -0.0070815356750573025 -0.016771900661139719 -0.0011348235497957973 0.00076318589782440054 -0.0083234567102793162 0.0032282638516345878 -0.0017443328285993726 0.0010864629154036184 0.00042905094741044626 -0.0046268072795519694 0.0055346720175195796 0.0064959556707118926 0.00098373642680145922 0.0037107822493533892 -0.011658038527489116 -0.0054178078779535503 -0.00073154648987368255 0.00035305779963405178 0.0030032383546499406 -0.0086040320897594856 0.0087419432250562881 -6.8719492422019221e-05 0.0045930857296370186 0.0026942179825331881
leaf_weight=576 2556 92 11612 3773 5794 2431 2827 8046 5012 5372 9052 2592 1398 7735 1504 1354 660 8060 3986 170 236 146 2446 763
leaf_count=576 2556 92 11612 3773 5794 2431 2827 8046 5012 5372 9052 2592 1398 7735 1504 1354 660 8060 3986 170 236 146 2446 763
internal_value=0 -0.00263011 -0.00461004 0.00255655 -0.00765655 0.000650464 2.3527e-05 -0.000314626 -0.00210756 -0.00654499 0.00430062 0.00343404 0.000692065 0.00274439 -0.0136237 -0.00475581 -0.00388209 -0.000191566 0.00247886 -0.0114721 0.00561617 0.00379705 0.00391277 0.00122572
